features.0.weight: torch.Size([64, 3, 7, 7])
[[[[-1.42128160e-02 -9.86845698e-03 -5.76851144e-03 ...  5.50181195e-02
     1.28950085e-02 -1.71355177e-02]
   [ 7.73245469e-03  3.95912724e-03 -1.13222063e-01 ... -2.71620333e-01
    -1.31169960e-01  1.60023849e-03]
   [-1.12013528e-02  5.25499769e-02  2.91556716e-01 ...  5.19145489e-01
     2.54448116e-01  6.16027564e-02]
   ...
   [-3.12418267e-02  1.15027623e-02  6.82269633e-02 ... -3.35596949e-01
    -4.25065368e-01 -2.61893570e-01]
   [ 2.72364672e-02  3.71638797e-02  5.91947250e-02 ...  4.10353512e-01
     3.88661981e-01  1.60454005e-01]
   [-1.63574014e-02 -7.37237372e-03 -2.81426255e-02 ... -1.54546112e-01
    -8.69394317e-02 -1.10693052e-02]]

  [[-1.20639736e-02 -2.75443811e-02 -3.44216079e-02 ...  3.52495424e-02
     1.14173745e-03 -2.52416711e-02]
   [ 4.52130362e-02  3.31846625e-02 -1.03721291e-01 ... -3.08532208e-01
    -1.58012465e-01  1.44837808e-03]
   [-2.29908386e-03  9.65646729e-02  4.01826471e-01 ...  7.11795688e-01
     3.71492445e-01  1.27338916e-01]
   ...
   [-5.70439808e-02 -6.79656118e-03  2.56964695e-02 ... -4.60975885e-01
    -5.71477175e-01 -3.65528047e-01]
   [ 3.21279056e-02  5.50691225e-02  9.94925275e-02 ...  5.46595693e-01
     4.81735945e-01  1.97251648e-01]
   [ 5.41767804e-03  5.89629728e-03 -1.77691840e-02 ... -1.48132071e-01
    -7.79651254e-02 -7.36905728e-04]]

  [[-3.00879567e-03 -1.02588916e-02  2.03883871e-02 ...  9.04634446e-02
     3.33077051e-02 -2.02970318e-02]
   [ 1.45827923e-02 -1.95354186e-02 -1.26154006e-01 ... -2.51054406e-01
    -1.28565267e-01 -2.65640821e-02]
   [ 8.05431977e-03  4.70482074e-02  2.15920165e-01 ...  3.51131916e-01
     1.05726913e-01  2.00117901e-02]
   ...
   [-3.02269645e-02  1.60482656e-02  9.67138931e-02 ... -1.17182583e-01
    -2.58471847e-01 -1.54759943e-01]
   [ 1.92146394e-02 -3.89036699e-03 -3.86747196e-02 ...  2.41213575e-01
     2.42529303e-01  1.16738677e-01]
   [-9.18700171e-05 -2.87497533e-04 -1.11705773e-02 ... -1.48953959e-01
    -1.18236773e-01 -3.96153033e-02]]]


 [[[-1.13848550e-02 -1.01511441e-02 -2.65512266e-03 ... -4.33664694e-02
    -2.95917429e-02 -5.54664172e-02]
   [ 4.71494980e-02  4.95680496e-02  7.69245103e-02 ...  1.40484959e-01
     1.38446733e-01  1.17578931e-01]
   [-1.09537691e-02 -1.38126302e-03  3.44774239e-02 ...  5.68440184e-02
     7.76640996e-02  1.13892302e-01]
   ...
   [-3.09681017e-02 -1.26954332e-01 -1.39855102e-01 ... -1.46063983e-01
    -1.16063178e-01 -5.50396778e-02]
   [ 1.89208202e-02 -2.18452886e-02 -1.54487155e-02 ... -2.36070100e-02
    -2.91581731e-02 -3.63175534e-02]
   [ 2.46861801e-02  1.74162984e-02  4.37637977e-02 ...  2.05213018e-02
     2.91922111e-02  4.13371529e-03]]

  [[-6.08720491e-03  7.07687670e-03  3.73323224e-02 ...  4.11212891e-02
     3.50772850e-02 -2.13867128e-02]
   [ 4.02987711e-02  6.63907304e-02  1.30716935e-01 ...  2.83324450e-01
     2.66294152e-01  2.04895511e-01]
   [-6.02604449e-02 -2.48083696e-02  2.90666930e-02 ...  1.34204984e-01
     1.62014470e-01  1.75213158e-01]
   ...
   [-1.12156875e-01 -2.55392075e-01 -2.99144059e-01 ... -2.89588511e-01
    -2.19423711e-01 -1.10845670e-01]
   [ 3.57787088e-02 -3.68963070e-02 -6.69310540e-02 ... -9.72459391e-02
    -7.62188435e-02 -5.75602651e-02]
   [ 7.87838101e-02  8.37537050e-02  9.78862569e-02 ...  4.74865660e-02
     5.39483614e-02  3.27877887e-02]]

  [[-2.07696483e-02 -1.69097818e-02  2.42176256e-03 ...  3.99375968e-02
     1.85117405e-02 -5.18148057e-02]
   [ 3.18497978e-02  4.14319187e-02  9.31291580e-02 ...  2.60119736e-01
     2.27769732e-01  1.63212731e-01]
   [-4.69817705e-02 -1.69271994e-02  2.66524497e-02 ...  1.47200048e-01
     1.29564062e-01  1.32227913e-01]
   ...
   [-7.41366073e-02 -1.90386266e-01 -2.34160855e-01 ... -1.93422660e-01
    -1.61410034e-01 -8.25504586e-02]
   [ 4.84880246e-02 -2.76733115e-02 -7.07581565e-02 ... -6.40859008e-02
    -6.84866533e-02 -5.28155752e-02]
   [ 1.09707028e-01  7.74591640e-02  6.46240860e-02 ...  2.63761468e-02
     1.79793481e-02 -1.31748884e-03]]]


 [[[-7.08255925e-08 -6.43061711e-08 -7.38059782e-08 ... -9.79999797e-08
    -1.09046582e-07 -8.34209501e-08]
   [-6.11253714e-09  2.06126383e-09 -8.09221667e-09 ... -4.98404695e-08
    -4.38357937e-08 -3.05376502e-09]
   [ 7.19528899e-08  7.56161072e-08  5.92821792e-08 ... -9.75090675e-09
    -1.09507414e-09  4.24423625e-08]
   ...
   [ 9.58887085e-08  1.00390203e-07  7.98171769e-08 ... -1.74907768e-08
    -4.76658819e-08 -1.32652547e-08]
   [ 1.29039933e-07  1.47616902e-07  1.74766029e-07 ...  1.32325141e-07
     1.06284297e-07  9.33156841e-08]
   [ 1.25584677e-07  1.36442040e-07  1.84310352e-07 ...  2.13986411e-07
     1.77096226e-07  1.71659892e-07]]

  [[-1.26900616e-07 -9.61386348e-08 -1.03717625e-07 ... -1.18081722e-07
    -1.33090793e-07 -1.08195458e-07]
   [-5.74124250e-08 -2.50548187e-08 -3.01148120e-08 ... -7.29221199e-08
    -6.70224978e-08 -2.25741150e-08]
   [ 2.18129550e-08  4.86084524e-08  3.12216315e-08 ... -1.86939424e-08
    -7.95906097e-09  3.97501196e-08]
   ...
   [ 5.60132492e-08  7.55256622e-08  4.44957315e-08 ... -4.41277557e-08
    -5.99301160e-08 -1.82472188e-08]
   [ 7.76138194e-08  9.83476696e-08  1.04548796e-07 ...  6.32717629e-08
     4.17807478e-08  4.59011034e-08]
   [ 5.98335106e-08  7.10060988e-08  9.04370125e-08 ...  1.16542104e-07
     8.75504895e-08  9.88368924e-08]]

  [[-4.38100969e-08  1.32701627e-08  7.82754750e-09 ... -5.88044857e-09
    -2.62172293e-08 -1.56494835e-08]
   [ 4.16999981e-08  1.07775193e-07  1.09462299e-07 ...  7.64030332e-08
     7.14500743e-08  9.76147021e-08]
   [ 1.04358712e-07  1.65855937e-07  1.59331947e-07 ...  1.35172414e-07
     1.34871996e-07  1.64485272e-07]
   ...
   [ 9.87634934e-08  1.50724290e-07  1.25466215e-07 ...  6.83155363e-08
     6.83818513e-08  1.13668818e-07]
   [ 9.14345080e-08  1.35758540e-07  1.37933682e-07 ...  1.16783120e-07
     1.17228772e-07  1.43941719e-07]
   [ 6.21827638e-08  8.81841871e-08  1.04564080e-07 ...  1.39408755e-07
     1.33325230e-07  1.58439391e-07]]]


 ...


 [[[-5.72066642e-02 -2.32955758e-02  2.60486640e-02 ...  5.23183718e-02
    -1.25037692e-02 -3.15294117e-02]
   [-3.72284688e-02  8.66977870e-03  4.80638370e-02 ...  9.97939855e-02
     6.28376082e-02  3.15687656e-02]
   [-3.13005298e-02  2.40518572e-03  2.13561580e-02 ...  6.22284859e-02
     4.29332964e-02  2.24838573e-02]
   ...
   [ 1.05556212e-02  4.86096144e-02  4.82556596e-02 ...  5.16981110e-02
     2.64238417e-02 -3.38194845e-03]
   [-3.13811190e-02 -6.03020610e-03  3.00219599e-02 ...  6.31850809e-02
    -2.45382520e-03 -5.76854162e-02]
   [-4.46664505e-02 -2.22455822e-02  2.58501316e-03 ...  9.23513472e-02
     1.15231546e-02 -4.74175587e-02]]

  [[-5.78470565e-02 -6.85086148e-03  2.39892900e-02 ...  2.55675204e-02
    -2.68711876e-02 -3.41382511e-02]
   [-3.43500264e-02  2.59323698e-02  4.55424897e-02 ...  6.73728734e-02
     4.72614728e-02  3.38654406e-02]
   [-3.74544188e-02  1.73498672e-02  2.01921482e-02 ...  3.29611786e-02
     3.39001082e-02  2.92136967e-02]
   ...
   [ 1.55417416e-02  5.93856238e-02  4.73422296e-02 ...  3.67631838e-02
     2.81177461e-02  1.34269949e-02]
   [-1.05131809e-02  2.47429907e-02  4.84121963e-02 ...  6.07680753e-02
     1.51548274e-02 -1.43335350e-02]
   [-2.40761749e-02  1.48498537e-02  3.61215174e-02 ...  1.01622470e-01
     3.73967513e-02 -7.82029144e-03]]

  [[-8.54803696e-02 -4.15479168e-02  8.06653872e-03 ...  3.25273238e-02
    -3.19820642e-02 -4.88548204e-02]
   [-3.27134691e-02  1.41603639e-02  4.57309075e-02 ...  8.47818702e-02
     4.95604984e-02  3.63476612e-02]
   [-4.46680002e-02 -6.46927860e-03  4.77693370e-03 ...  2.04265844e-02
     2.11848393e-02  2.03679241e-02]
   ...
   [-7.72375613e-03  3.05966996e-02  1.57052986e-02 ...  2.53024395e-03
    -1.10326735e-02 -1.31397303e-02]
   [-2.56762300e-02 -3.03063588e-03  2.56240088e-02 ...  3.25016789e-02
    -2.00072750e-02 -3.79998423e-02]
   [-1.43124461e-02  6.03877893e-03  1.09674763e-02 ...  6.92429394e-02
     8.74592271e-03 -1.51639469e-02]]]


 [[[-3.03609180e-03  2.93007623e-02  4.59205508e-02 ...  3.22061777e-02
     1.73489600e-02  2.21174154e-02]
   [ 1.72948986e-02 -2.22612936e-02 -2.60005277e-02 ...  7.74475262e-02
     5.01725152e-02  5.52925803e-02]
   [-2.86213718e-02 -1.10506512e-01 -1.31084710e-01 ...  3.54040563e-02
     3.89799774e-02  2.88194716e-02]
   ...
   [ 1.63721852e-02  5.52638108e-03 -7.07099540e-03 ...  7.72978296e-04
     1.70870479e-02  1.37414802e-02]
   [ 1.48327625e-03  1.88698526e-02  1.94910280e-02 ...  2.49157334e-03
     2.34633330e-02  5.22897986e-04]
   [ 1.01649705e-02  3.04605216e-02  1.79796442e-02 ...  6.84871478e-03
     1.95636712e-02  1.62752345e-02]]

  [[-1.45972725e-02  2.71789567e-03  1.83865428e-02 ... -1.03847766e-02
     5.70984930e-03  1.19858682e-02]
   [-1.80659313e-02 -6.02484643e-02 -5.77583276e-02 ...  2.50505712e-02
     2.30806787e-02  1.96606629e-02]
   [-5.42435721e-02 -1.40267789e-01 -1.55133277e-01 ...  5.70927095e-03
     2.68001631e-02  7.74544710e-03]
   ...
   [-6.17019739e-03 -2.31549125e-02 -2.66292356e-02 ... -1.09092798e-02
     1.89944264e-02  4.61120158e-03]
   [-3.65720759e-03  9.45096090e-03  2.21724641e-02 ...  1.54505228e-03
     3.75447571e-02  6.24474417e-03]
   [-7.58677628e-03  5.39859571e-03  4.54618875e-03 ... -1.22618824e-02
     2.57517975e-02  1.61415171e-02]]

  [[-2.45590485e-03 -4.10928810e-03  7.50487391e-03 ... -5.38867749e-02
    -3.15796882e-02 -2.93278694e-02]
   [ 1.89953856e-03 -4.52217795e-02 -5.36620915e-02 ... -2.30339095e-02
    -2.82297712e-02 -4.33411896e-02]
   [-2.09788121e-02 -9.63139012e-02 -1.10221304e-01 ... -1.93072110e-02
    -1.55593976e-02 -4.64352071e-02]
   ...
   [ 3.08518880e-03 -1.66813210e-02 -1.34262880e-02 ... -4.41727377e-02
    -1.77681539e-02 -3.44873890e-02]
   [-1.80455786e-03 -1.39658665e-03  1.40044680e-02 ... -3.07104625e-02
     9.75278020e-03 -2.23502498e-02]
   [-2.16365233e-02 -3.13324630e-02 -2.79965010e-02 ... -5.76135814e-02
    -1.87085848e-02 -3.04286573e-02]]]


 [[[-3.39416303e-02  9.47494712e-03  2.05389503e-02 ...  2.31509972e-02
     1.79384165e-02 -1.53071359e-02]
   [-3.16481339e-03  9.24138427e-02  1.31583959e-01 ...  1.71398409e-02
     6.24652253e-03 -2.28631515e-02]
   [ 1.21457778e-01  1.91353351e-01  5.62101491e-02 ... -1.66581750e-01
    -6.55977279e-02 -5.57853989e-02]
   ...
   [-4.91980016e-02 -2.55051225e-01 -2.65383929e-01 ...  2.75089711e-01
     1.50892779e-01  6.25979081e-02]
   [-1.81991328e-02 -2.79644541e-02  1.04233958e-01 ...  2.14987502e-01
     2.92865792e-03 -3.09008975e-02]
   [-1.96800455e-02  1.44273471e-02  8.66167471e-02 ... -3.77292521e-02
    -1.39060512e-01 -8.31472129e-02]]

  [[-8.23029503e-03  2.97411159e-02  1.15569271e-02 ... -9.75169614e-03
     6.38670579e-04 -2.69253412e-03]
   [ 6.23492673e-02  1.48238495e-01  1.44293830e-01 ... -3.01028006e-02
    -2.10252348e-02 -1.04087265e-02]
   [ 1.62759423e-01  2.08234519e-01 -2.82100681e-02 ... -2.73716182e-01
    -1.08596168e-01 -6.49589673e-02]
   ...
   [-1.38171032e-01 -4.10380065e-01 -3.88103664e-01 ...  4.08366144e-01
     2.61924535e-01  1.36552945e-01]
   [-6.11574501e-02 -6.38026297e-02  1.39018387e-01 ...  3.57427686e-01
     9.27890837e-02  1.26467392e-04]
   [ 6.42901054e-03  5.58409430e-02  1.51223511e-01 ...  4.73977402e-02
    -9.79125723e-02 -9.48267505e-02]]

  [[-8.31348449e-03  1.06883403e-02 -2.98804305e-02 ...  2.50241812e-03
    -2.11360442e-04  1.00979051e-02]
   [ 5.59968501e-03  4.30533253e-02  5.72303906e-02 ...  1.21650258e-02
    -7.26885675e-03  1.25799596e-03]
   [ 5.50762154e-02  1.22616000e-01  4.00617905e-02 ... -1.46981746e-01
    -7.73786455e-02 -6.09120801e-02]
   ...
   [-3.28316316e-02 -1.66074708e-01 -1.62088558e-01 ...  2.26812333e-01
     1.17950231e-01  6.97709396e-02]
   [-1.20994821e-02 -3.65815568e-03  8.05236399e-02 ...  1.55225053e-01
     2.01603658e-02 -1.19094830e-02]
   [-6.08672388e-03 -7.55849993e-03  3.27595919e-02 ... -2.59525143e-02
    -7.22378269e-02 -6.78557083e-02]]]]

features.1.weight: torch.Size([64])
[ 2.3342198e-01  2.7269948e-01 -5.1095959e-08  5.2110809e-01
  3.4404020e-09  2.1206965e-01  4.2561415e-01  1.3153240e-07
  2.3989631e-01  1.5152026e-06  3.3165359e-01  2.4055485e-01
  3.8312301e-01  1.0861835e-05  2.7024585e-01  2.2066790e-01
  2.4100441e-01  3.9530274e-01  4.6014556e-01  2.9610097e-01
  2.7069163e-01  2.8437069e-01  2.9486379e-01  2.0266354e-01
  2.6837522e-01  2.7773130e-01  2.9350093e-01  3.0812070e-01
  3.8711360e-01  3.0584478e-01  2.8247723e-01  2.1869460e-01
  2.7320477e-01  3.3069691e-01  4.2069906e-01  3.7985012e-01
  7.4803758e-08  1.9330065e-01  1.4740126e-08  2.1239209e-01
  1.7745553e-01  2.4960753e-01  2.8253108e-01  2.6982811e-01
  2.9046682e-01  3.0796033e-01  2.3114534e-01  2.6390934e-01
  2.2001148e-08  2.6997957e-01  2.1125856e-01  2.9003701e-01
  3.3228993e-01  2.0915271e-01  3.6071852e-01  2.1943824e-01
  2.4524204e-01  2.4270624e-01  5.2665883e-01  2.3909126e-01
  2.9781130e-01  2.6267004e-01  4.7735819e-01  2.7281237e-01]

features.1.bias: torch.Size([64])
[ 2.3395848e-01  2.5132525e-01 -1.0542981e-06 -6.6393173e-01
 -1.6570555e-08  1.5512858e-01  4.5718738e-01 -4.3019500e-07
  2.9416552e-01 -8.0052396e-06  3.4898701e-01  3.2197377e-01
 -2.5065130e-01 -3.4748900e-05  1.0230558e-01  2.1489134e-01
  3.8758463e-01 -5.3009355e-01 -6.3762265e-01  5.8250707e-01
  2.9561177e-01  5.8275265e-01  4.9045831e-01  3.3833101e-01
  1.9694805e-01  1.8833899e-01  1.5167171e-01  8.5387886e-02
  5.0719118e-01  1.2950768e-02  1.6731706e-01  3.3332488e-01
  2.4445999e-01  4.3830633e-01 -2.8913376e-01 -2.2458283e-02
 -2.4506875e-07  3.1533390e-01 -4.9151744e-08  2.4745815e-01
  2.3401983e-01  3.2010242e-01  4.3572778e-01  2.8624418e-01
  2.5483790e-01  6.9020158e-01  4.3204162e-01  3.4530109e-01
 -8.6909019e-08  2.4283612e-01  3.0221495e-01  6.0964167e-01
  3.9047062e-01  3.3217120e-01 -4.1587314e-01  3.6369741e-01
  1.8828407e-01  2.5316721e-01 -4.4778597e-01  2.0897223e-01
  5.7036585e-01  5.6132817e-01 -4.0543103e-01  2.3322500e-01]

features.1.running_mean: torch.Size([64])
[-3.7152506e-02 -5.9254968e-01  3.0224774e-06 -3.2409242e-01
  1.7685920e-07  2.7961811e-01  9.8363861e-02 -1.1386721e-06
 -3.1924803e-02  1.3071840e-05  3.0087444e-01  3.2291941e-03
 -6.8903828e-01 -6.5014101e-05 -4.3517195e-02 -4.9228272e-01
  3.7142521e-01  1.0269880e+00  8.1263715e-01 -1.0150771e+00
 -4.4656110e-01  1.0181520e+00 -9.2771041e-01  4.3236962e-01
 -6.4930022e-02  2.2725587e-01  1.5485002e-01 -6.3991499e-01
 -2.3258898e-01 -7.3193783e-01 -1.3285936e-01  7.5654918e-01
  5.2785349e-01  4.3650764e-01  8.0743659e-01 -8.4912676e-01
 -5.3503436e-07  9.5582205e-01 -1.2309209e-07 -1.6114233e-01
  2.3094743e-01 -1.3670874e-01 -4.2933169e-01  5.0039989e-01
  8.1527835e-01 -7.1848297e-01  2.3200890e-01  2.0315666e-01
  2.3612408e-07 -3.9678171e-01 -1.4802970e-01 -6.1505806e-01
  1.9903766e-01  4.0104410e-01 -9.6058506e-01 -4.4891140e-01
 -4.2589599e-01  5.9192681e-01 -5.8649498e-01 -4.4275981e-01
 -3.7916645e-01  1.4695783e+00 -9.1141224e-01 -7.1494304e-02]

features.1.running_var: torch.Size([64])
[7.7724986e-02 2.8597096e-01 2.9489607e-12 3.8997471e-02 8.1815666e-15
 4.0370788e-02 7.6534510e-02 3.4817602e-13 8.0841288e-02 8.2163457e-11
 2.2738418e-01 9.8510690e-02 1.7071745e-01 1.9999231e-09 8.0682713e-01
 7.5996466e-02 5.1155146e-02 2.6744282e-01 2.1881881e-01 5.8366436e-01
 2.4592720e-01 3.0419630e-01 4.4364429e-01 5.7958920e-02 2.2682261e-02
 4.4560924e-01 9.3824685e-01 1.7303997e-01 2.5814819e-01 1.9033058e-01
 7.6868556e-02 1.8046099e-01 2.6395193e-01 1.2453104e-01 1.8242636e-01
 3.5030502e-01 7.5283258e-14 2.6234037e-01 5.0921935e-15 2.1373656e-02
 1.8845273e-02 5.0876141e-02 9.5246851e-02 1.4547417e-01 3.4853074e-01
 1.5889302e-01 3.4657281e-02 4.4952050e-02 1.5283212e-14 1.0412124e-01
 2.3591483e-02 1.5720974e-01 1.0075240e-01 5.8043446e-02 3.1749433e-01
 7.4374974e-02 2.0648432e-01 4.2216381e-01 1.1957927e-01 9.1870233e-02
 1.1569097e-01 6.0307813e-01 3.0743259e-01 7.2900712e-02]

features.1.num_batches_tracked: torch.Size([])
160

features.4.0.conv1.weight: torch.Size([64, 64, 3, 3])
[[[[ 5.60618043e-02 -9.70148072e-02 -1.88156329e-02]
   [-7.26688206e-02 -7.96231747e-01 -2.07754597e-01]
   [ 6.06789216e-02 -9.62253064e-02 -1.12527963e-02]]

  [[-8.77002161e-03  7.75879761e-03 -5.80273708e-03]
   [ 3.91046889e-02 -1.65341064e-01 -2.83745807e-02]
   [ 1.25261839e-03  2.34034890e-03  6.91112429e-02]]

  [[-2.36272957e-09 -3.92696933e-08 -3.29712115e-08]
   [ 2.17368665e-08  8.32994651e-09  1.25426221e-08]
   [ 1.13815046e-08  8.80957973e-09  1.55057229e-08]]

  ...

  [[-3.22621875e-02  1.93222892e-02 -2.76101772e-02]
   [-9.62328985e-02 -4.38441746e-02 -5.23663014e-02]
   [-7.78619796e-02  3.01003978e-02  4.81695496e-03]]

  [[ 1.86171699e-02  1.37223406e-02  1.25179701e-02]
   [ 1.74931958e-02  8.31467973e-04 -1.89440660e-02]
   [ 1.23960674e-02  3.39051895e-02 -2.00095885e-02]]

  [[-2.51203123e-02 -3.08475047e-02 -3.10554244e-02]
   [ 5.97249903e-02 -1.06404305e-01  1.23179769e-02]
   [-1.86362192e-02  8.17240849e-02 -7.23358826e-04]]]


 [[[ 1.55838318e-02  3.61454077e-02 -2.09768098e-02]
   [-2.96742674e-02  5.43624684e-02  2.85212398e-02]
   [ 6.67841034e-03  5.03412522e-02  4.64412011e-03]]

  [[ 2.30316930e-02  5.95220476e-02  6.29821122e-02]
   [-2.68622916e-02 -2.02288672e-01 -5.52166253e-02]
   [ 5.46452962e-02  7.07358867e-02  1.85399745e-02]]

  [[-3.14577129e-08  3.53353862e-08  5.37908100e-08]
   [-2.68960179e-08  5.15296001e-08  5.44796173e-08]
   [-3.84867285e-08 -1.12340492e-08 -7.57868435e-09]]

  ...

  [[-1.35253519e-01  3.81867066e-02 -6.74706474e-02]
   [-6.49250746e-02  1.57991886e-01 -9.53726005e-03]
   [-9.96607691e-02  4.69299816e-02 -8.40536058e-02]]

  [[-3.36868390e-02  8.36343225e-03 -4.17621806e-03]
   [ 1.82124879e-02 -5.65510057e-02 -2.66604032e-02]
   [ 1.35813709e-02 -2.90594045e-02 -5.56527684e-03]]

  [[ 1.12556783e-03  3.81647758e-02  8.29175115e-03]
   [ 5.81374392e-02 -7.29240384e-03  4.12758403e-02]
   [ 7.03768060e-03  2.39855368e-02  1.25956178e-01]]]


 [[[-2.96846349e-02  1.47159938e-02  2.48136166e-02]
   [ 1.99506059e-02 -2.04260219e-02  2.63747852e-03]
   [ 6.87396896e-05  2.93747634e-02 -6.59393612e-04]]

  [[-2.10675802e-02  1.47575734e-03 -8.18174146e-03]
   [-1.27890883e-02  3.47062654e-04  2.17837933e-02]
   [ 6.21942151e-03 -4.31527831e-02 -7.35845938e-02]]

  [[ 3.10022159e-08  5.35681401e-08  3.18728759e-08]
   [-1.60628986e-08 -1.80720718e-08 -1.95075711e-09]
   [-5.83393955e-08 -4.53659688e-08 -1.23951072e-08]]

  ...

  [[ 3.77884076e-04 -2.65767332e-02 -3.95174660e-02]
   [ 2.52106003e-02 -2.94292998e-02 -3.50720398e-02]
   [ 2.05902965e-03 -2.22827792e-02 -1.74044389e-02]]

  [[ 1.81595515e-02  8.32961523e-04 -2.73414869e-02]
   [ 1.75589100e-02 -9.21321474e-03 -8.12108919e-04]
   [-1.00068925e-02 -3.31210904e-02 -1.69694182e-02]]

  [[-8.70478619e-03  3.86322886e-02 -9.26812086e-03]
   [ 6.97224364e-02 -3.71401235e-02 -1.66011241e-03]
   [-2.37651765e-02  8.76235589e-03 -1.73006230e-03]]]


 ...


 [[[ 1.02144741e-02 -4.46586590e-03 -6.37171566e-02]
   [ 2.14740243e-02 -1.63628347e-02 -4.68435213e-02]
   [ 3.27183977e-02  2.22445931e-02 -1.36924265e-02]]

  [[ 5.45781702e-02 -2.04287842e-02 -2.70729642e-02]
   [ 7.54626542e-02  6.99256081e-03 -1.06496356e-01]
   [ 1.23624466e-02  3.97853516e-02  2.23236997e-03]]

  [[ 2.66801137e-09  2.76706889e-08  2.47016558e-08]
   [ 6.39048370e-09  4.10204315e-08  3.36311494e-08]
   [ 5.83346305e-09  1.33336515e-08  9.66038449e-09]]

  ...

  [[ 9.03141685e-03  5.16838096e-02 -5.37541695e-03]
   [-1.32520893e-03  6.52465522e-02  9.89565253e-03]
   [-1.54146161e-02  4.95589599e-02  8.97880550e-03]]

  [[-9.98644158e-03 -1.29711451e-02 -9.66250338e-03]
   [-2.48225424e-05  5.89347351e-03 -9.24521592e-03]
   [-7.72891100e-03  5.74416248e-03 -1.30715510e-02]]

  [[ 2.26893779e-02  4.94259782e-02 -2.53680255e-02]
   [ 3.10773104e-02  5.39482199e-02  2.42421106e-02]
   [ 2.54634451e-02  6.27724677e-02  1.68644693e-02]]]


 [[[-2.97602955e-02  6.33595372e-03 -1.59186441e-02]
   [-2.63036024e-02  2.47178432e-02 -3.72276045e-02]
   [-1.51881194e-02 -8.19564890e-03 -2.60013491e-02]]

  [[-4.99722511e-02 -4.25655954e-03 -2.25068145e-02]
   [-8.09361506e-03  6.35167509e-02  1.54838255e-02]
   [-2.71265339e-02 -2.86859944e-02 -6.78507313e-02]]

  [[-4.98043029e-08 -2.82106889e-08 -2.05829149e-08]
   [-5.23889447e-08 -2.85222672e-08 -3.50993403e-08]
   [-3.21705080e-08 -3.41100090e-08 -4.31534026e-08]]

  ...

  [[ 2.99292104e-03  2.64050812e-02 -1.12667792e-02]
   [ 6.38872897e-03  3.84335667e-02 -3.01586054e-02]
   [ 3.90628316e-02  3.24959792e-02  2.65633105e-03]]

  [[-1.93947107e-02  7.72640994e-03  1.22601287e-02]
   [-2.13449281e-02  1.60688348e-02  4.49952902e-03]
   [-1.54828886e-02  2.46697164e-04 -6.63514668e-03]]

  [[ 2.98645999e-03  7.80676007e-02 -5.49776538e-04]
   [-3.75697762e-02  8.74890983e-02 -2.05480326e-02]
   [ 9.75509547e-03 -5.09194508e-02 -7.76288435e-02]]]


 [[[ 5.93923442e-02  7.75419502e-03 -3.35935280e-02]
   [ 2.86776461e-02  1.22940242e-02  8.51972681e-03]
   [ 1.48145016e-02  1.88007858e-02 -1.09367222e-02]]

  [[-2.33789124e-02  8.84527154e-03 -6.20523803e-02]
   [-1.06032584e-02  5.91851622e-02 -6.62829354e-02]
   [-2.31378544e-02  4.32061823e-03  3.17007154e-02]]

  [[ 1.84964808e-08  5.27977262e-09  4.18195967e-08]
   [ 3.74893787e-08  2.54502535e-08  3.04191055e-08]
   [ 1.12459153e-08 -5.69558489e-09 -2.00075707e-08]]

  ...

  [[ 1.27880573e-02 -3.59077267e-02 -6.67563500e-03]
   [ 3.02665159e-02 -5.70054464e-02  1.83408093e-02]
   [ 3.27752195e-02 -5.93803357e-03  1.22871520e-02]]

  [[-7.08327675e-03  1.05490116e-02 -3.26347761e-02]
   [-6.01802468e-02  3.56758498e-02  1.92199387e-02]
   [-1.86128933e-02  1.60621181e-02  1.91743001e-02]]

  [[ 3.70767340e-02 -6.94906116e-02  4.60526813e-03]
   [-2.65450384e-02  9.36721116e-02  1.79161914e-02]
   [-2.82986499e-02 -1.73897278e-02 -8.01971853e-02]]]]

features.4.0.bn1.weight: torch.Size([64])
[0.304043   0.2155095  0.23451394 0.43303126 0.50749147 0.21782947
 0.22187105 0.22549884 0.26666364 0.27480847 0.21780564 0.45614794
 0.26829076 0.23685749 0.39026552 0.23021224 0.26415333 0.36435962
 0.33752114 0.23555401 0.32205856 0.530448   0.6320178  0.22022343
 0.44435495 0.30492353 0.259056   0.47223362 0.22388797 0.27568284
 0.34666523 0.43686074 0.44263932 0.45223004 0.55820626 0.52252454
 0.26127866 0.25877786 0.57714814 0.6510018  0.22910684 0.19803427
 0.25220755 0.21979553 0.22870767 0.18272822 0.64188445 0.3107387
 0.50787836 0.24367927 0.30717012 0.38042468 0.38873762 0.42375052
 0.292294   0.33529317 0.2563953  0.3321602  0.19973691 0.44506577
 0.17130323 0.50834465 0.26522797 0.3126858 ]

features.4.0.bn1.bias: torch.Size([64])
[ 0.16990212  0.24103913  0.1860585  -0.03868894 -0.21113999  0.16222481
  0.28897348  0.08792435  0.11226828  0.09385034  0.10769005 -0.2068174
  0.14327717  0.08878033 -0.10900983  0.06792852  0.06410755 -0.20275934
 -0.03235166  0.13553265  0.03003129 -0.28660825 -0.33698916 -0.01252328
 -0.44353616 -0.12409881  0.12655564 -0.07659058  0.10916056 -0.08815919
 -0.5298987  -0.08810631 -0.39156723 -0.06079703 -0.17688133 -0.18032476
  0.13714743  0.00463841 -0.25849956 -0.28738266  0.13564178  0.25034183
  0.14323503 -0.00199811  0.02068059  0.34120792 -0.26577538 -0.01972664
 -0.24851047  0.15952644  0.01414125 -0.08907251 -0.18029304 -0.09303529
  0.16155626 -0.47987396  0.06145269 -0.06389654  0.32450125 -0.4952745
  0.31583536 -0.26743636 -0.15127362 -0.005232  ]

features.4.0.bn1.running_mean: torch.Size([64])
[-0.91204804 -0.00520652  0.39694136 -0.806263   -1.4738276  -0.35123125
 -0.5750295  -0.8079903  -1.1853245  -1.3815968  -0.24834448 -0.8848565
  0.63792086 -1.494099   -1.249678   -1.1863805  -1.7979188  -0.45034012
 -1.6696006  -0.20967916 -1.4925284  -1.7709891  -1.5847623  -1.676069
 -1.2666463  -1.5275291   1.3738012  -2.1114912   0.4069264   0.00567765
 -1.4565388  -0.8078281  -2.7517383  -1.0802408  -2.081191   -1.725772
 -1.2257925  -1.0457842  -2.9202743  -3.3007112   0.5870148  -0.6916248
  0.72496414  1.9397436  -0.9471369  -1.3865757  -2.74916    -1.4937909
 -1.3565943  -2.2247124  -1.9705604  -2.144472   -1.2311109  -1.5520908
 -1.3150748   0.80170846 -0.7490928  -0.45810515 -0.5936205  -1.1829648
  0.4650317  -1.2326447   1.0933845  -0.8533908 ]

features.4.0.bn1.running_var: torch.Size([64])
[0.52782947 0.14441143 0.2316844  0.4533886  0.5310057  0.3407396
 0.09525859 0.87757343 0.54461825 1.4875228  0.22278856 0.42000607
 0.20960428 0.5948809  0.89492667 0.23309466 0.26290175 1.2144186
 0.18986955 0.1826074  0.8379324  0.5394203  1.1122762  0.21113634
 0.60639757 0.95240986 0.67842865 0.7938522  0.26244807 0.7309449
 0.26003128 0.40374976 0.39887792 0.6778392  0.94531494 1.0743066
 0.42096847 0.20268571 0.9728179  1.905868   0.75852257 0.63061994
 0.30297425 0.3485099  0.42389673 0.18266201 1.5024266  0.1949132
 0.90609694 0.30409142 0.7885149  0.55772555 0.5363431  0.41728774
 0.33345756 0.21667087 0.33312315 0.24451366 0.19714563 0.5211775
 0.11554734 0.5078734  0.20197845 0.20853153]

features.4.0.bn1.num_batches_tracked: torch.Size([])
160

features.4.0.conv2.weight: torch.Size([64, 64, 3, 3])
[[[[ 2.32232939e-02 -1.05744660e-01 -6.67669112e-03]
   [-9.18789506e-02 -3.33110988e-01 -1.02145426e-01]
   [-5.81508726e-02 -1.92509890e-01 -5.21757044e-02]]

  [[-1.62309408e-02  1.82581898e-02 -2.89841462e-03]
   [-1.72159343e-03  4.22364697e-02 -1.03267357e-02]
   [-6.42059520e-02  2.94706679e-05 -7.16677459e-04]]

  [[ 8.91651725e-04  2.56230086e-02  1.92154646e-02]
   [ 1.86570324e-02 -1.98718556e-03  1.91635992e-02]
   [ 1.72479004e-02  1.45220747e-02  1.05691915e-02]]

  ...

  [[-6.55231997e-03 -1.62314363e-02  1.61080211e-02]
   [-4.90988903e-02 -5.43243848e-02 -4.57009301e-02]
   [-2.93500554e-02 -2.04999875e-02  1.51818793e-03]]

  [[-6.20424701e-03  3.48309986e-02 -2.83504574e-04]
   [ 1.38226459e-02  1.58745684e-02  1.04089007e-02]
   [-6.75450079e-03 -5.57811279e-03  4.56432393e-03]]

  [[ 1.28324181e-02  2.48834230e-02 -6.27095578e-03]
   [-1.71609353e-02  4.43648212e-02  1.50669478e-02]
   [ 2.98820361e-02  6.44989610e-02  1.01423478e-02]]]


 [[[ 4.59162779e-02  3.50534543e-02  9.85585037e-04]
   [ 2.80810315e-02 -2.93318592e-02  2.85392944e-02]
   [-2.20471099e-02  4.19076085e-02  4.68571298e-02]]

  [[ 2.39816383e-02  4.05193157e-02  2.67047007e-02]
   [ 2.19171308e-02 -3.95593569e-02 -6.22386523e-02]
   [-7.13788942e-02 -8.64036754e-02 -1.02653019e-01]]

  [[ 1.01772994e-01  1.23713993e-01 -7.55911320e-02]
   [-3.52271833e-02 -2.89240293e-03  4.08377163e-02]
   [-1.03579424e-01 -7.94809908e-02  1.35825008e-01]]

  ...

  [[-6.71115145e-03  2.41033863e-02  2.23712884e-02]
   [-7.91469682e-03 -6.96163857e-04  2.21102673e-04]
   [-6.34662854e-03 -7.21497508e-03 -3.62757663e-03]]

  [[-1.53333787e-02 -1.98945869e-02  5.30191436e-02]
   [-1.53254047e-02 -1.34710893e-02  3.66589427e-02]
   [ 7.25979777e-03 -3.81602580e-03 -7.43029872e-03]]

  [[ 6.69224933e-03  1.90427452e-02  6.12316430e-02]
   [-3.96982767e-02  1.77878886e-02  8.02672468e-03]
   [-2.71846801e-02 -1.22662392e-02 -4.38259877e-02]]]


 [[[ 3.72983422e-03 -2.21187398e-02  6.27492834e-03]
   [ 1.93518102e-02  4.89340052e-02  6.36107400e-02]
   [ 3.09767853e-02  7.36418813e-02  5.36896810e-02]]

  [[ 1.31660211e-03 -5.10174665e-04  2.05153152e-02]
   [ 1.81718376e-02  2.91787516e-02  3.30363512e-02]
   [-5.07351011e-02 -4.62568030e-02  1.91724990e-02]]

  [[-2.95209251e-02 -2.60728206e-02 -1.15528535e-02]
   [-1.10858753e-02  1.36684626e-02  2.83432403e-03]
   [-1.81072857e-02 -6.89557055e-04 -3.05353571e-02]]

  ...

  [[-2.15191487e-02 -3.29919308e-02 -1.12859290e-02]
   [-1.67258922e-02 -2.45078304e-03  3.50334793e-02]
   [-1.61461569e-02  1.26314284e-02  3.75533327e-02]]

  [[ 3.57785337e-02  5.66465110e-02  8.33297372e-02]
   [-1.34327367e-03  4.14671795e-03  3.97328250e-02]
   [ 8.85885791e-04 -1.19063919e-02  9.12596378e-03]]

  [[-4.33699451e-02  4.43877652e-03  3.30778658e-02]
   [-2.98039503e-02 -2.27796566e-03  5.56261763e-02]
   [-4.43666428e-02 -1.13192759e-02  5.83142824e-02]]]


 ...


 [[[ 1.27658239e-02 -2.21893960e-03  4.55090543e-03]
   [ 1.50776822e-02  2.02896129e-02  2.45897770e-02]
   [ 1.47073464e-02  1.04828859e-02  2.74961945e-02]]

  [[-2.67268103e-02  2.60090251e-02 -5.79183362e-02]
   [ 4.65941168e-02  1.36970550e-01 -3.44607717e-04]
   [ 6.59026578e-02  1.42522812e-01  4.17483374e-02]]

  [[ 2.66051739e-02  1.01328855e-02  2.06467900e-02]
   [ 2.24098917e-02  1.97300110e-02  4.00514044e-02]
   [ 1.85043775e-02 -1.25146843e-02  3.20551693e-02]]

  ...

  [[ 2.84899306e-03  1.79035275e-03  4.15112525e-02]
   [-1.38414409e-02 -1.00852288e-02  5.01131564e-02]
   [-2.62934584e-02 -3.54267471e-02  2.86658946e-02]]

  [[-1.01163695e-02 -3.65571901e-02 -1.42806256e-03]
   [-2.93029509e-02 -5.65077364e-02 -2.04084255e-02]
   [-3.02322824e-02 -6.86057284e-02 -3.45106944e-02]]

  [[ 3.65884788e-02  9.27357934e-03  8.29855073e-03]
   [ 4.72452901e-02  5.02475677e-03  1.71930343e-02]
   [ 4.62964997e-02  1.67557839e-02  1.66574381e-02]]]


 [[[ 2.41534063e-03  1.82733517e-02  2.84365825e-02]
   [-4.86099832e-02  1.22623816e-02  1.04706399e-01]
   [-5.06580546e-02 -1.40756536e-02  4.56317030e-02]]

  [[ 3.30237783e-02  3.57889123e-02 -1.72762871e-02]
   [ 5.51983230e-02  5.35952114e-03 -1.05940655e-01]
   [-2.88079716e-02  4.35418170e-03  1.18577201e-02]]

  [[-1.63250547e-02 -2.11994443e-02  4.62769642e-02]
   [ 4.57496904e-02  2.62230039e-02  4.30921502e-02]
   [ 4.33862628e-03 -8.99270084e-03 -1.21335627e-03]]

  ...

  [[ 2.30530966e-02  1.63388960e-02  9.52125527e-03]
   [ 1.42353717e-02  2.48786062e-02  1.36371062e-03]
   [ 1.73726398e-02  3.73395681e-02 -1.27337109e-02]]

  [[ 2.78504565e-02  3.64463516e-02 -1.00331068e-01]
   [ 7.05350051e-03  4.07351181e-05 -8.34478959e-02]
   [-3.27668944e-03  1.95429362e-02 -8.30309242e-02]]

  [[-1.64067987e-02 -3.40868272e-02 -3.36705744e-02]
   [ 1.31555237e-02 -1.82828051e-03 -7.31311664e-02]
   [ 4.02620807e-02  3.07123847e-02  9.55930445e-04]]]


 [[[-1.34643346e-01  6.88285381e-02 -5.27858082e-03]
   [ 8.74963179e-02  8.10481235e-02  3.68335918e-02]
   [-2.35696789e-02 -5.42383008e-02  8.78421813e-02]]

  [[ 1.28814904e-02 -3.13174166e-02  1.33458646e-02]
   [ 9.85317770e-03  3.55729237e-02 -2.71770963e-03]
   [-1.40722468e-02 -6.57859724e-03 -6.30856678e-02]]

  [[-7.33925551e-02  1.08728603e-01  2.52550207e-02]
   [ 6.18662350e-02 -1.51980594e-01 -1.83627810e-02]
   [ 5.22439042e-03  4.84706610e-02 -1.91760901e-02]]

  ...

  [[-6.87723979e-02 -5.44593781e-02 -1.89269576e-02]
   [ 4.62180972e-02  4.69606705e-02 -7.98594803e-02]
   [ 1.22338822e-02  4.90383729e-02 -4.98289578e-02]]

  [[-3.03038768e-03  2.75452081e-02 -1.43543519e-02]
   [-8.08786526e-02 -5.62080592e-02 -8.88044387e-03]
   [-3.76225673e-02 -1.21985219e-01 -2.87068710e-02]]

  [[-7.11089596e-02 -1.61402691e-02 -4.78500165e-02]
   [-6.13685884e-02  1.03336036e-01  5.23399608e-03]
   [ 8.20594281e-02 -3.50023322e-02 -9.87924915e-03]]]]

features.4.0.bn2.weight: torch.Size([64])
[0.23484509 0.21065833 0.27004522 0.6159418  0.27425718 0.28734276
 0.10159162 0.44419748 0.2800143  0.29570258 0.2457582  0.4047697
 0.48863694 0.32771593 0.4847383  0.16399507 0.22640435 0.50998676
 0.21998191 0.35774013 0.49146008 0.44530237 0.4722958  0.22277063
 0.13264938 0.26728842 0.38500842 0.27289495 0.2337288  0.40370858
 0.2992767  0.31958902 0.1913594  0.22921106 0.20123988 0.16471861
 0.4648229  0.33982283 0.33678487 0.22737543 0.24253777 0.2428877
 0.26969394 0.4660168  0.34438682 0.24309471 0.4748983  0.27651623
 0.64282537 0.43862638 0.33885393 0.41525185 0.12451018 0.3058872
 0.5885597  0.26758695 0.4689254  0.45912573 0.44197693 0.27468103
 0.34699866 0.11523782 0.4997346  0.42501637]

features.4.0.bn2.bias: torch.Size([64])
[ 2.3081577e-01  1.5324627e-03 -7.5138368e-02 -6.6499211e-02
  3.6568278e-01 -2.0363480e-01  2.5843952e-03  1.8126378e-02
  3.9679602e-01  3.9798215e-02 -1.3109512e-03  2.8073630e-01
 -6.7657903e-02 -2.4993916e-01 -8.4293783e-02 -1.0093379e-01
 -1.4115995e-01  4.9317226e-02 -3.6923847e-01 -3.8491711e-01
 -4.1093367e-01  1.2784814e-03 -2.7013543e-01 -2.5500378e-02
 -7.2740868e-02  2.1071790e-01  6.3979242e-05 -2.0630108e-01
 -2.8920364e-01 -2.0923387e-02  2.6543263e-01 -9.0960331e-02
 -2.2896266e-01 -1.3126835e-01  1.7186020e-01  5.0698727e-02
 -2.2571619e-01 -5.2467324e-02  2.4090001e-01  2.2387441e-01
  1.5707618e-01  1.2032238e-01  1.1321811e-01 -1.5827771e-01
 -3.7276629e-02 -2.9046926e-01  4.9764809e-01  9.8435514e-02
  2.4055829e-02  1.0389544e-01  4.2117640e-01 -1.8484624e-02
  1.7032146e-02  1.0096692e-01 -1.7012213e-01  8.3678484e-02
 -1.3080253e-01 -2.3476817e-01  1.4463344e-01  1.9965424e-01
 -5.5950351e-02  2.1520105e-01 -1.1525817e-01  3.1227243e-01]

features.4.0.bn2.running_mean: torch.Size([64])
[-0.06176085 -0.17108512  0.65053934  0.2178141   0.62957716  0.03493745
  0.12749174 -0.07261197 -0.26654145 -0.00370616 -0.47969374 -0.09448893
 -0.20430332 -0.2747757  -0.06274815 -0.42498535  0.04706556  0.0440754
  0.00124801 -0.10232058  0.24361281 -0.2420391   0.11873143 -0.2833258
 -0.14709625 -0.47431263 -0.09017595  0.14611953 -0.5371303  -0.21594329
 -0.19090675 -0.26645297 -0.12880343 -0.68932796 -0.06251734  0.28071547
  0.31851867 -0.34390464 -0.08746773 -0.20613196 -0.23709957 -0.01257342
 -0.22581325 -0.1505461   0.28948432 -0.5130026  -0.92286193  0.01960749
  0.0470119  -0.0378506  -0.16036984  0.1780484  -0.1597346  -0.14078096
  0.06817728 -0.31237495 -0.38199773  0.02408366 -0.20637971  0.45667717
 -0.15889066  0.29544854  0.2681236  -0.04897042]

features.4.0.bn2.running_var: torch.Size([64])
[1.1765078  0.04399078 0.03283539 0.17779453 0.3480666  0.05276401
 0.06034625 0.09631169 0.03399516 0.07779615 0.7147643  0.05436362
 0.05563067 0.15248348 0.15090816 0.15274364 0.13978653 0.13152151
 0.0498313  0.20798205 0.116581   0.45619524 0.18824533 0.1723731
 0.02855295 0.28585517 0.14172894 0.11387741 0.05738951 0.25418752
 0.1361437  0.14766309 0.12859185 0.12448329 0.1908367  0.10431015
 0.05295604 0.1987078  0.10126437 0.03806735 0.09322049 0.4438787
 0.16040361 0.15213677 0.45949763 0.36359948 0.14634824 0.3652825
 0.2054543  0.03869708 0.03053643 0.13889621 0.09411517 0.4606721
 0.12619701 0.3487664  0.18033956 0.21036716 0.14730178 0.06500194
 1.2841729  0.1224252  0.14705458 0.03110266]

features.4.0.bn2.num_batches_tracked: torch.Size([])
160

features.4.1.conv1.weight: torch.Size([64, 64, 3, 3])
[[[[ 2.01760139e-02 -2.98557943e-03 -5.77862549e-04]
   [-1.62171070e-02 -6.97985245e-03 -3.17548662e-02]
   [ 5.05877994e-02  7.76387006e-02  4.58011366e-02]]

  [[ 2.04484016e-02 -7.39473058e-03 -1.37527594e-02]
   [-3.64542827e-02 -2.17179209e-02 -6.28591478e-02]
   [-1.80957629e-03  4.58923392e-02  4.25530449e-02]]

  [[ 1.60206389e-02 -9.32410639e-03 -1.95820387e-02]
   [-6.79819146e-03 -3.29521149e-02 -2.93335747e-02]
   [-3.28024291e-02 -5.37996776e-02 -2.77442336e-02]]

  ...

  [[-1.25910062e-02  8.19979385e-02 -9.65688936e-03]
   [-3.13121900e-02  5.14217466e-02 -1.72902439e-02]
   [-4.29161675e-02 -2.67714430e-02 -4.09486815e-02]]

  [[ 1.20216729e-02 -3.56651507e-02 -5.67800738e-02]
   [ 5.89616150e-02 -1.20006287e-02 -7.16829002e-02]
   [ 2.90625524e-02  3.53395678e-02 -2.39090826e-02]]

  [[-6.75125793e-02  6.70209993e-03 -2.21108850e-02]
   [ 8.12943354e-02  1.83016490e-02 -4.99900207e-02]
   [ 7.52014890e-02 -8.64042193e-02  3.80638577e-02]]]


 [[[-2.03803852e-02 -4.27759215e-02  2.75500398e-03]
   [-4.20468561e-02 -1.20379059e-02 -2.51886416e-02]
   [-2.65583722e-03 -2.85478849e-02 -1.20899789e-02]]

  [[ 2.43969331e-03 -1.24662369e-02  6.41866922e-02]
   [-4.35367078e-02 -8.24846551e-02 -1.09686116e-02]
   [ 3.06240339e-02 -4.97058183e-02  5.91910025e-03]]

  [[-1.99549086e-02 -3.66012603e-02 -4.34601307e-02]
   [-2.42699031e-02 -4.05223556e-02 -1.79057270e-02]
   [-3.38212252e-02 -1.57030579e-02 -9.71818436e-03]]

  ...

  [[ 4.28207181e-02  2.88229939e-02  6.79190308e-02]
   [ 1.56522673e-02  2.78384169e-03  6.07372122e-03]
   [ 3.19680572e-02 -1.66579932e-02  1.73006412e-02]]

  [[-6.25135079e-02 -2.90124416e-02  2.40094215e-02]
   [-7.93422833e-02 -8.68756399e-02  8.27696621e-02]
   [-4.64806445e-02 -4.08840887e-02 -9.31530297e-02]]

  [[-1.26598001e-01  8.21747705e-02  6.69658631e-02]
   [-1.17169451e-02  4.20323193e-01 -1.14498613e-02]
   [-3.21588814e-02 -9.61904004e-02 -9.49396044e-02]]]


 [[[ 8.91073123e-02  4.55771424e-02  4.41427296e-03]
   [ 3.86855267e-02 -2.11372040e-02 -3.50430608e-02]
   [-1.55687658e-02 -3.21751498e-02 -3.71797085e-02]]

  [[ 5.23014478e-02  5.45628853e-02  2.21688543e-02]
   [-3.11060920e-02  3.23876962e-02 -1.57597400e-02]
   [-2.26866230e-02 -5.94750009e-02  3.20334248e-02]]

  [[ 4.06992920e-02  4.83682789e-02  4.51820008e-02]
   [ 1.28082708e-02 -1.90908518e-02 -4.01930548e-02]
   [ 2.35489872e-03 -2.41096392e-02 -3.90350446e-02]]

  ...

  [[-1.39611259e-01 -1.47859767e-01  4.73430417e-02]
   [-1.25317425e-01 -1.33839771e-01  7.45913163e-02]
   [-4.32760976e-02 -1.77488998e-02  7.15903044e-02]]

  [[ 4.60362844e-02 -1.91040791e-03 -3.57122533e-02]
   [ 6.49079010e-02  1.81998722e-02 -3.71374600e-02]
   [ 1.32614840e-02  6.85063237e-03  2.77657509e-02]]

  [[ 1.61840304e-04 -5.61406724e-02 -1.55769363e-02]
   [-1.23937952e-03  1.04259439e-02  3.32929753e-02]
   [ 1.05580809e-02 -1.53405694e-02 -2.70789899e-02]]]


 ...


 [[[ 2.56405137e-02  5.90751171e-02 -4.96607972e-04]
   [-2.07687858e-02 -5.91843724e-02 -7.02855662e-02]
   [-5.74725738e-04 -4.82384600e-02 -5.27215898e-02]]

  [[-6.41984539e-03  2.62866728e-03 -7.40836747e-03]
   [-6.53010746e-03  6.82367757e-03 -3.51031637e-03]
   [-3.55123989e-02 -7.65899643e-02 -5.89569062e-02]]

  [[-1.44064578e-03  1.37141617e-02  1.59367565e-02]
   [-5.32938540e-02 -4.55683917e-02 -3.65380608e-02]
   [-7.53886700e-02 -8.87096152e-02 -9.66432318e-02]]

  ...

  [[ 2.56445296e-02  6.94653019e-02  3.52382883e-02]
   [-1.98271498e-02  3.43467225e-03 -1.86415017e-02]
   [ 5.04133627e-02  7.00313151e-02  4.01131921e-02]]

  [[ 1.17704021e-02  1.82946585e-02  9.94181931e-02]
   [-1.13472494e-03 -5.95684238e-02 -4.01160605e-02]
   [-1.18268933e-03 -6.90179020e-02 -4.95347269e-02]]

  [[ 2.73887825e-04 -4.04793434e-02  2.15574144e-03]
   [-3.47117856e-02 -1.39291808e-01 -5.58267348e-02]
   [-9.24339239e-03  6.80321380e-02  1.06658228e-01]]]


 [[[ 3.01823374e-02 -1.27905151e-02 -4.04381566e-03]
   [ 1.91828813e-02  2.97481543e-03 -3.08520775e-02]
   [-1.95643026e-02  2.91391718e-03  1.56282689e-02]]

  [[ 4.76572104e-03  2.80496571e-03  9.99003276e-03]
   [-9.87492152e-04 -3.76157719e-03  3.53915915e-02]
   [ 7.73362592e-02  1.25089325e-02  7.65720755e-03]]

  [[-4.85413074e-02 -2.95779109e-02 -1.73056182e-02]
   [-1.93034131e-02 -2.67252959e-02 -4.83753067e-03]
   [ 4.90147667e-03 -9.24688415e-04  6.60658488e-03]]

  ...

  [[ 1.31508447e-02 -3.36963646e-02 -1.55184288e-02]
   [-1.31824901e-02 -4.35063839e-02 -4.34573181e-02]
   [ 8.17223336e-05 -2.76674237e-02 -9.09745041e-03]]

  [[-7.89919868e-02 -7.43056014e-02 -6.75463974e-02]
   [-7.47205988e-02 -8.42573047e-02  5.28159998e-02]
   [-2.26531848e-02 -3.56185734e-02  7.27625983e-03]]

  [[ 8.30262676e-02  1.76517060e-05  7.76791275e-02]
   [-6.19599484e-02 -1.27011791e-01  4.75887321e-02]
   [ 9.18167979e-02 -4.72143888e-02  3.47563960e-02]]]


 [[[ 3.67194712e-02 -2.28530099e-03 -6.03506789e-02]
   [ 4.02212255e-02 -1.28460393e-04 -2.24888045e-02]
   [ 7.76867643e-02  5.22846654e-02 -6.81581208e-03]]

  [[ 2.87404079e-02  6.69476995e-03  1.90556794e-02]
   [-7.37522915e-02 -1.16495214e-01 -7.16312900e-02]
   [-7.19608134e-03 -3.16020548e-02 -2.76595112e-02]]

  [[-1.98872760e-02 -5.24339266e-03 -3.61309722e-02]
   [-3.45407873e-02 -4.63576466e-02 -6.22172952e-02]
   [-3.32728103e-02 -4.90061827e-02 -4.13965285e-02]]

  ...

  [[ 1.57578860e-03  8.27340633e-02  2.67746598e-02]
   [ 5.39410077e-02  1.29269913e-01  3.42507511e-02]
   [-4.40838374e-03  4.20621336e-02 -4.46730070e-02]]

  [[ 2.23761052e-02 -4.20337208e-02  2.99738143e-02]
   [-3.46046430e-03 -4.53525409e-02 -5.46800345e-02]
   [ 2.10186816e-03  5.29439524e-02  5.47586381e-02]]

  [[-8.81669223e-02  2.96552740e-02  1.05182000e-01]
   [-8.49154498e-03 -2.41258927e-02 -5.24555780e-02]
   [ 1.12992479e-02  3.24254967e-02 -9.19402093e-02]]]]

features.4.1.bn1.weight: torch.Size([64])
[0.39267412 0.43409967 0.38154915 0.40635443 0.33544058 0.34461683
 0.26122394 0.27489728 0.2837205  0.43096206 0.19297712 0.3106887
 0.37739488 0.28344595 0.20604959 0.32144892 0.29828945 0.2729573
 0.21047264 0.47125003 0.23910889 0.1948283  0.44727057 0.28411648
 0.34555525 0.29758143 0.34880504 0.2773216  0.39815938 0.28322506
 0.25982937 0.44153693 0.3378882  0.37978625 0.43843567 0.39049324
 0.24415167 0.3231178  0.36474544 0.30906186 0.3702986  0.31950495
 0.23087001 0.36857754 0.29626027 0.23442517 0.29494014 0.23840559
 0.39316994 0.28374016 0.32131156 0.28898415 0.31540155 0.4503274
 0.3575009  0.24008268 0.3421768  0.35284823 0.36982745 0.37715486
 0.40605035 0.2850914  0.45895806 0.34017506]

features.4.1.bn1.bias: torch.Size([64])
[-0.09419319 -0.4786357  -0.0479039  -0.25937444 -0.08169782 -0.00608544
  0.05015513  0.10104387 -0.01827244 -0.14490806  0.22523786  0.14927162
 -0.18154074  0.01826081  0.15311351 -0.18586308  0.11876068 -0.1628142
  0.05705208 -0.28233454 -0.25432855  0.24229243 -0.3270672  -0.01115284
 -0.25843328  0.0568651  -0.24295819  0.05187652 -0.3468641   0.09187162
 -0.19716871 -0.17384052 -0.01470358 -0.26628724 -0.3243503  -0.10684342
  0.05750589 -0.13949816 -0.06105237 -0.01735068 -0.3140096  -0.0674003
 -0.0674075  -0.10373599  0.0335147   0.05284156 -0.25229344  0.10068277
 -0.37259448  0.07783954 -0.03537352  0.14633454 -0.04813422 -0.3146737
 -0.01519637  0.1326262  -0.09150388 -0.17676677 -0.12537794 -0.07642914
 -0.14664313  0.04483912 -0.44284782 -0.00248179]

features.4.1.bn1.running_mean: torch.Size([64])
[-9.2992485e-01  7.6103586e-01 -1.6948776e+00 -5.2561432e-01
 -8.5801184e-01 -1.8285257e+00  1.2062369e-03  5.7230932e-01
 -2.9446107e-01 -4.3233925e-01 -5.5794793e-01  1.8734381e-01
 -1.2723365e+00 -7.6144934e-01  1.0315242e+00 -5.9268695e-01
 -2.8911361e-01 -5.1629996e-01 -1.4664834e+00 -1.1838715e+00
 -7.0022696e-01 -8.5728073e-01 -1.9155412e+00  6.5232927e-01
  4.9502879e-01 -1.1513267e+00 -1.2580223e+00 -1.1774110e+00
  4.7431698e-01 -2.9611161e-01 -4.3325290e-01 -2.9453328e+00
 -1.0029348e+00  3.5670841e-01 -2.0349922e+00 -2.3498714e+00
  4.0448326e-01  2.5774640e-01 -1.0229098e+00 -7.7417582e-01
  7.7381402e-01  4.0280275e-02  7.7596003e-01 -1.5702223e+00
 -8.8203382e-01 -1.9817393e-01 -2.8712893e-01  5.8457273e-01
  1.5408379e+00 -4.1456529e-01 -4.0823314e-01 -1.7453436e+00
 -8.1850815e-01 -9.4526958e-01 -1.6998837e+00  8.8529274e-02
 -6.3862514e-01 -7.2438860e-01 -6.3992298e-01 -1.9484874e+00
 -1.4821668e+00  1.4795811e-01  1.5054834e-01 -1.4021360e+00]

features.4.1.bn1.running_var: torch.Size([64])
[0.6392046  0.77993095 0.62122554 0.71161354 0.32233205 0.5854643
 0.321123   0.5015331  0.2502142  0.5180447  0.21121664 0.8242271
 0.45863834 0.42510024 0.2539111  0.26909876 0.50086623 0.3038357
 0.40405405 0.47817436 0.1273766  0.14072247 0.57718754 0.22806312
 0.12507671 0.6932048  0.26361164 0.6960167  0.33687606 0.63143235
 0.18390688 1.3104749  0.28848097 0.16201425 0.7064125  0.47972304
 0.48305544 0.2748226  0.86138535 0.52413255 0.31914657 0.38408473
 0.19257347 0.96807647 0.9222339  0.3186707  0.24155255 0.53209114
 0.8248335  0.44634986 0.39305067 0.7656913  0.7289189  0.35601604
 1.0362659  0.5003386  0.4115048  0.35604408 0.4565057  0.84526324
 0.55575764 0.7658379  0.47971645 0.5049233 ]

features.4.1.bn1.num_batches_tracked: torch.Size([])
160

features.4.1.conv2.weight: torch.Size([64, 64, 3, 3])
[[[[-2.07568854e-02  4.98938002e-03  1.08051542e-02]
   [-1.09373275e-02  4.24940735e-02  2.27144938e-02]
   [-1.13214897e-02  5.67447618e-02  3.09242476e-02]]

  [[ 7.18342289e-02  5.26482873e-02  5.81326485e-02]
   [ 3.45488898e-02  8.42568406e-05  2.21299492e-02]
   [ 5.64527288e-02  4.59152386e-02  4.97686155e-02]]

  [[-1.45146968e-02 -2.69925091e-02 -4.46523428e-02]
   [-2.27460396e-02  3.55194286e-02  6.74055656e-03]
   [-2.05765646e-02  2.14496274e-02  2.25288346e-02]]

  ...

  [[ 4.44525778e-02  3.71191315e-02  5.58970384e-02]
   [ 3.96705531e-02  5.47262356e-02  1.86944623e-02]
   [ 1.91082060e-02  2.62738578e-02  3.03005800e-02]]

  [[ 8.79253820e-03  1.37285516e-02  6.32444173e-02]
   [-6.26737601e-04 -2.25208346e-02  1.94185227e-02]
   [ 1.64299347e-02  2.15155482e-02  2.00542137e-02]]

  [[ 6.10068589e-02  7.21765608e-02  7.02281222e-02]
   [ 5.90884760e-02  9.89860967e-02  6.32183179e-02]
   [ 5.58042414e-02  8.16022009e-02  8.65247622e-02]]]


 [[[-1.06706135e-02 -1.71312857e-02  3.24490061e-03]
   [ 5.83513752e-02  4.78244945e-02  5.67656010e-02]
   [ 4.93753701e-02  2.62115411e-02  3.44572254e-02]]

  [[-2.42724852e-03 -3.32114249e-02 -1.36118112e-02]
   [-4.95447591e-02 -5.67231886e-02 -6.19527744e-03]
   [-5.47477417e-02 -2.89421268e-02 -2.07524933e-03]]

  [[ 3.72951701e-02  3.54798026e-02  4.42670425e-04]
   [ 2.54249461e-02  2.95391283e-03 -2.70525422e-02]
   [-1.10085430e-02  8.46252311e-03  5.00786677e-03]]

  ...

  [[ 2.43075509e-02  5.75501993e-02  4.22192663e-02]
   [-2.91773602e-02 -4.24069911e-03 -1.01327235e-02]
   [-3.12144067e-02 -1.32113434e-02 -3.24402042e-02]]

  [[-3.15494575e-02 -3.73876095e-02 -4.11723107e-02]
   [-1.71028879e-02 -4.44516093e-02 -3.24079432e-02]
   [ 2.48201024e-02 -7.59887800e-04  2.65410403e-04]]

  [[-5.71931303e-02 -5.02296314e-02  6.35142485e-03]
   [-5.04162489e-03  2.07213853e-02  6.46469295e-02]
   [ 2.27601230e-02  4.36941870e-02  1.84642896e-02]]]


 [[[ 1.40708955e-02 -3.66635025e-02 -4.39740382e-02]
   [ 1.94059424e-02  6.45697210e-03  1.13203675e-02]
   [-3.71995359e-03  1.00477450e-02  3.04797031e-02]]

  [[-2.17083395e-02  2.06795707e-02  5.27682416e-02]
   [ 1.83030777e-02  6.75797686e-02  9.82209742e-02]
   [ 4.77061905e-02  1.04474619e-01  1.04050234e-01]]

  [[-3.19934599e-02 -2.95327604e-02  2.29906775e-02]
   [-4.72515933e-02 -2.74475161e-02 -2.59201750e-02]
   [-2.37319106e-03  1.15862899e-02 -1.10794520e-02]]

  ...

  [[-1.99051481e-02 -5.46323098e-02 -4.05035280e-02]
   [ 3.97862382e-02  2.84889564e-02 -1.11185843e-02]
   [ 9.55664217e-02  1.22153588e-01  9.42106247e-02]]

  [[ 3.46052051e-02  7.77871683e-02  6.78459853e-02]
   [ 3.17218192e-02  1.24619387e-01  1.17857516e-01]
   [ 1.02201768e-03  4.42353971e-02  4.64569330e-02]]

  [[ 2.48960853e-02  3.39249931e-02 -1.36705386e-02]
   [ 3.90961170e-02  2.10102815e-02 -1.00736376e-02]
   [-2.88322498e-03 -2.73365062e-03  1.32108023e-02]]]


 ...


 [[[-3.85859571e-02 -7.56201893e-02 -5.02779782e-02]
   [ 3.88258211e-02  1.63169615e-02  3.08817551e-02]
   [ 7.46389572e-03 -1.62410978e-02  4.59241457e-02]]

  [[ 1.36780720e-02  1.25642233e-02 -9.14810225e-04]
   [ 1.21067315e-02 -1.15455007e-02 -2.85458528e-02]
   [-3.04354890e-03 -2.07765307e-02  8.81754048e-03]]

  [[ 6.55228226e-03  4.34148870e-02  7.83254728e-02]
   [-6.04754910e-02 -3.63248177e-02 -1.73713285e-02]
   [-3.30646001e-02 -2.49383282e-02 -1.27685582e-02]]

  ...

  [[-3.66360322e-02 -3.92251946e-02 -1.46505199e-02]
   [-2.91161961e-03  7.65946507e-03  2.73630451e-02]
   [ 2.53957585e-02  5.67091629e-02  7.43606836e-02]]

  [[-1.87257375e-03  1.47568407e-02 -1.74944941e-02]
   [-9.64759290e-03 -1.31413490e-02 -8.15643184e-03]
   [-5.57401823e-03  2.74580577e-03 -1.41212475e-02]]

  [[ 1.66131426e-02  3.31020006e-03  6.66223094e-03]
   [ 3.21351960e-02 -1.00272885e-02  5.97399399e-02]
   [ 2.57234219e-02  5.81418872e-02  1.25535965e-01]]]


 [[[ 9.62149724e-03 -1.76969357e-02 -7.89591391e-03]
   [ 4.06042337e-02 -2.60094889e-02 -3.08146942e-02]
   [-1.97947733e-02  5.25836321e-03 -2.52900776e-02]]

  [[-2.95726433e-02 -2.63288058e-02  2.46174783e-02]
   [-2.15085819e-02  2.34484393e-02  2.21640188e-02]
   [ 1.83658805e-02  8.16174038e-03  1.34830747e-03]]

  [[ 2.45190356e-02  6.53930828e-02 -3.23093832e-02]
   [ 6.31603599e-02  4.55769561e-02 -3.41374963e-03]
   [ 4.09676768e-02 -5.30463792e-02  8.92606191e-03]]

  ...

  [[ 6.21681102e-03 -5.15427254e-03  6.88463822e-03]
   [ 2.98834685e-02  1.20117068e-02 -2.86944956e-02]
   [ 8.85459594e-03  6.31898828e-03 -5.01811653e-02]]

  [[ 3.48070711e-02 -1.24913501e-02 -1.04091493e-02]
   [-2.29450502e-03  4.21457225e-03 -8.20433837e-04]
   [-2.23535039e-02  1.49077913e-02 -3.03869881e-02]]

  [[-3.34539525e-02 -5.58084659e-02 -2.03974713e-02]
   [-4.28590886e-02 -1.55570880e-02 -5.39043685e-04]
   [-4.82571265e-03  1.54033527e-02  4.58073663e-03]]]


 [[[ 2.83019263e-02 -4.75876145e-02 -3.45538929e-02]
   [ 9.92180407e-03  5.75817302e-02 -1.16509665e-02]
   [-2.96962578e-02  3.92998457e-02 -1.50360903e-02]]

  [[ 1.02860697e-01 -1.06921524e-01 -6.62112385e-02]
   [-1.02801539e-01 -1.05643332e-01 -1.96918517e-01]
   [-1.11984193e-01 -7.24592432e-02  2.76341606e-02]]

  [[-1.52320294e-02  9.73174535e-03  7.29627833e-02]
   [-3.64539698e-02  9.13410112e-02 -3.52660939e-02]
   [-4.13018502e-02 -4.85012121e-02 -1.60432681e-02]]

  ...

  [[-4.08464447e-02 -8.38189870e-02  5.17454259e-02]
   [-8.32590908e-02 -5.87634146e-02  6.96681961e-02]
   [ 2.47668773e-02  3.93016227e-02  4.22825739e-02]]

  [[ 4.92446171e-03  1.97854210e-02 -3.01761292e-02]
   [ 1.82942152e-02  1.73537675e-02 -1.90761294e-02]
   [-5.82085811e-02 -3.19995806e-02 -3.95823196e-02]]

  [[ 2.19203010e-02  1.04371430e-02  8.76417104e-03]
   [-8.83888751e-02  6.92437962e-02  1.24742717e-01]
   [ 8.25242326e-03  1.36879668e-01  4.25905101e-02]]]]

features.4.1.bn2.weight: torch.Size([64])
[0.25643852 0.56257135 0.4060851  0.5143155  0.20788695 0.48436716
 0.3322327  0.5509281  0.4326622  0.53271127 0.20729797 0.47433507
 0.58373487 0.5636868  0.2903992  0.24972673 0.48485196 0.6163999
 0.4364256  0.23420428 0.51433444 0.32219815 0.56888837 0.20793433
 0.19238247 0.13849725 0.22012532 0.25272384 0.5868338  0.34525153
 0.41099682 0.31851706 0.57982945 0.33188117 0.27678606 0.18739375
 0.61543256 0.3890519  0.6422606  0.3853893  0.75229365 0.20885253
 0.3078716  0.4656918  0.30366218 0.18541957 0.44784155 0.25046667
 0.57523    0.65702367 0.39133072 0.30963513 0.68029016 0.17953944
 0.5816687  0.25247893 0.35312295 0.20554376 0.57342786 0.34132913
 0.20051119 0.07562669 0.40635228 0.44698527]

features.4.1.bn2.bias: torch.Size([64])
[-0.17353687 -0.1363974   0.03829673 -0.14283207  0.1954005  -0.14177603
 -0.41898185 -0.13428807  0.22007112 -0.1866157   0.02790189 -0.01742518
 -0.17253381 -0.03835403 -0.03020072 -0.11301621  0.00811368  0.10269162
 -0.1502029   0.02977507 -0.23322305 -0.08770064 -0.04369431 -0.06006146
 -0.25864252  0.13912694 -0.01951037  0.19975802 -0.01708577 -0.02427271
 -0.01509161  0.02815083 -0.10764557 -0.37618223  0.28684145 -0.10158231
  0.3130492  -0.10345087  0.2689688   0.12376923 -0.3230991   0.03855598
  0.05098313  0.23437853 -0.07686018  0.0632171  -0.04814328  0.12683095
  0.03740462 -0.13090818  0.15163347 -0.0779354  -0.34578407 -0.16278501
 -0.04226468 -0.1490865  -0.1632593   0.04550535  0.08974003  0.08696689
 -0.07037653  0.04628487 -0.04163224  0.05495694]

features.4.1.bn2.running_mean: torch.Size([64])
[-0.06104578 -0.21634239  0.80639225 -0.09764712  0.6278132  -0.02734017
  0.0494299   0.07444613 -0.16276497 -0.3313687   0.4029389   0.02088297
 -0.03748314 -0.5450598   0.13487391 -0.10253514 -0.11188959 -0.19215436
 -0.00970051 -0.15061218 -0.07966645  0.08438635  0.05368633  0.04015234
 -0.06039084  0.04761523 -0.09789916  0.12628771 -0.4623643  -0.07931407
 -0.0562728  -0.18942589 -0.4437995  -0.1461506  -0.33669677 -0.02991194
 -0.29065034 -0.22989917 -0.11095941 -0.02756444 -0.10993861  0.301406
  0.22268237 -0.06140207 -0.4153887  -0.27622738 -0.31109527  0.19574054
 -0.11149096 -0.24310094 -0.13993976  0.00676005 -0.30083898 -0.13172106
 -0.08858031  0.31416702  0.01017727 -0.29240125 -0.09021465  0.16614223
  0.15698226  0.16336194 -0.07785904  0.20350277]

features.4.1.bn2.running_var: torch.Size([64])
[0.12983736 0.12317167 0.22779898 0.0605415  0.32342988 0.10123859
 0.09054786 0.07231111 0.04956794 0.21403368 0.14668716 0.07322044
 0.05937502 0.16655315 0.07124153 0.04054955 0.13158137 0.11277781
 0.03783916 0.13240291 0.07653139 0.27263415 0.1142261  0.02784641
 0.03570842 0.11595301 0.03998514 0.15433022 0.09479097 0.08776175
 0.0743161  0.16318503 0.1091189  0.08673189 0.14078707 0.10608003
 0.07349247 0.08681621 0.0574025  0.04929702 0.09952945 0.05311794
 0.09130851 0.08400142 0.04828563 0.07955524 0.05920804 0.19689837
 0.08646809 0.09124376 0.05354673 0.2227218  0.09965558 0.06690212
 0.06521015 0.05209614 0.06986937 0.06829956 0.10011161 0.03264457
 0.0775295  0.04800042 0.10513882 0.06997479]

features.4.1.bn2.num_batches_tracked: torch.Size([])
160

features.5.0.conv1.weight: torch.Size([128, 64, 3, 3])
[[[[-6.54457808e-02 -1.03995942e-01 -1.31538942e-01]
   [ 7.73221999e-02 -8.91418103e-03 -9.56589878e-02]
   [ 1.23304173e-01  9.18830037e-02 -4.60786512e-03]]

  [[-2.71934606e-02 -4.00328217e-03  4.50946158e-03]
   [-2.08344148e-03  1.20972050e-02  1.83866359e-02]
   [-4.52613132e-03 -1.06583312e-02 -1.58596132e-02]]

  [[ 7.93940446e-04  1.65192003e-03 -1.34790130e-02]
   [ 3.77557403e-03 -1.73293836e-02 -4.22207937e-02]
   [ 1.45673081e-02 -1.48983328e-02 -4.77826148e-02]]

  ...

  [[ 3.34814675e-02  2.87538543e-02  2.10744608e-02]
   [ 7.68021308e-03 -3.02976463e-03 -1.35686584e-02]
   [-9.13183950e-03 -2.00670026e-02 -3.17066647e-02]]

  [[-1.23727443e-02 -1.55873988e-02 -1.76040344e-02]
   [ 1.51671972e-02  2.32796948e-02 -1.78979058e-02]
   [ 2.60930452e-02  6.27383813e-02  3.47109362e-02]]

  [[ 3.02818622e-02 -1.87363215e-02 -4.59499843e-03]
   [ 4.11655940e-02 -2.73753976e-04 -1.72827523e-02]
   [ 4.24187183e-02  1.23291248e-02  1.69531927e-02]]]


 [[[-7.33182579e-02 -7.04375654e-02 -3.28681953e-02]
   [-3.08594722e-02 -5.91181330e-02 -3.48280780e-02]
   [-2.49247495e-02 -5.24341464e-02 -4.97832820e-02]]

  [[-1.64334029e-02 -2.39868760e-02 -2.30131042e-03]
   [ 8.00980080e-04  1.08434828e-02  1.30641442e-02]
   [ 3.05044577e-02  1.56308468e-02 -6.12034276e-03]]

  [[-9.17217582e-02 -8.82778019e-02 -5.60621582e-02]
   [-7.95687214e-02 -8.36969018e-02 -3.49718779e-02]
   [-5.59374988e-02 -4.46295030e-02  1.15319248e-02]]

  ...

  [[-2.95381472e-02 -3.84286121e-02 -2.74060965e-02]
   [-1.21257557e-02 -9.83100571e-03  6.68839645e-03]
   [ 1.66148916e-02  2.85797771e-02  2.85281148e-02]]

  [[-1.90871162e-03 -4.07326296e-02 -3.89204249e-02]
   [ 1.87135069e-03 -7.02215033e-03 -1.76786110e-02]
   [-5.60347643e-03  5.11700427e-03  8.35007895e-03]]

  [[ 3.64563838e-02  4.69636805e-02  3.43563897e-03]
   [ 6.13378733e-02  7.09449723e-02  3.19449604e-02]
   [ 2.89227851e-02  4.57994565e-02 -2.81346031e-03]]]


 [[[ 1.00315996e-02  3.15840840e-02  4.84188609e-02]
   [-1.32696889e-02  4.39986208e-04  1.65211987e-02]
   [-7.51176700e-02 -5.56563437e-02 -4.58591543e-02]]

  [[ 4.64957058e-02  3.34766209e-02  3.43531370e-02]
   [ 5.68120591e-02  5.47323339e-02  2.60533430e-02]
   [ 2.40698960e-02  4.52413857e-02  7.85437319e-03]]

  [[-3.55113521e-02 -4.12925705e-02 -3.13407779e-02]
   [-7.29606068e-03  6.68815430e-03  2.94305920e-03]
   [ 1.91099774e-02  7.77177559e-03 -6.46398263e-03]]

  ...

  [[-1.86258685e-02 -7.25076497e-02 -9.43284184e-02]
   [ 3.17932256e-02  1.05556855e-02 -2.92752739e-02]
   [ 9.31789726e-02  1.15523323e-01  5.51419258e-02]]

  [[-3.23306932e-03  4.29962873e-02 -1.30916536e-02]
   [-2.89058983e-02  3.11633572e-03 -1.71801802e-02]
   [-6.76903129e-02 -6.24822304e-02 -2.91313566e-02]]

  [[-2.91769655e-04 -1.87947601e-02 -4.27972153e-02]
   [-6.14612363e-03 -1.37163326e-02  3.08081950e-03]
   [ 2.10774802e-02  2.80179456e-02  1.87436901e-02]]]


 ...


 [[[-5.08744977e-02 -6.98577687e-02 -2.26288773e-02]
   [-9.92731899e-02 -6.01436123e-02  9.37994290e-03]
   [-2.62191575e-02  3.23036946e-02  6.84372634e-02]]

  [[-4.58608521e-03  2.39880709e-03 -1.83370393e-02]
   [ 1.01979589e-02 -4.20136796e-03 -1.59528535e-02]
   [ 4.39704955e-03 -8.24341364e-03 -2.85009798e-02]]

  [[-2.60842126e-02 -4.92471866e-02 -7.81838223e-03]
   [-5.32583706e-02 -4.30926010e-02  5.19749988e-03]
   [-4.63894904e-02 -1.98213030e-02  1.86907146e-02]]

  ...

  [[-9.94226336e-03  1.68405368e-03 -1.14242388e-02]
   [ 1.67082253e-04  3.37787392e-03 -1.51404859e-02]
   [-4.32369448e-02 -4.02819552e-02 -5.27503788e-02]]

  [[-2.27951654e-03 -4.99063358e-03  3.05759385e-02]
   [-8.34424421e-03 -5.28362617e-02  5.32983579e-02]
   [ 1.79819334e-02  2.22360510e-02  7.91558102e-02]]

  [[-4.09073532e-02 -2.44405977e-02 -1.32671045e-02]
   [-4.28731814e-02 -3.65435667e-02 -1.42008392e-02]
   [-1.72181875e-02  5.91974985e-03  4.06187922e-02]]]


 [[[-4.84038144e-02 -5.19815199e-02 -5.02591617e-02]
   [ 2.46617980e-02 -1.45285213e-02 -2.33605485e-02]
   [ 2.00894158e-02  9.51622576e-02  1.02232456e-01]]

  [[-5.14416359e-02 -1.36677297e-02 -4.68156394e-03]
   [-5.69177233e-02 -5.11147715e-02 -4.54218686e-02]
   [ 2.77237929e-02  6.03258759e-02  7.98052624e-02]]

  [[ 2.90261041e-02  1.87917072e-02  2.46294439e-02]
   [-2.03385856e-02 -3.25286798e-02 -8.44777375e-03]
   [ 1.63543969e-02 -1.03819799e-02  4.45774011e-03]]

  ...

  [[ 4.19742940e-03  2.46010497e-02  2.08260231e-02]
   [ 6.12065522e-03  3.27531993e-02  3.34573872e-02]
   [-1.33954082e-02  1.29582286e-02  6.36496441e-03]]

  [[-4.09282511e-03  1.44521212e-02  1.38259446e-02]
   [ 3.89032322e-03 -1.31399315e-02  2.10698918e-02]
   [ 4.96732891e-02  3.58923018e-04  4.01242971e-02]]

  [[-6.74166810e-03  7.08723674e-03  3.20019340e-03]
   [ 4.30314392e-02  5.29506877e-02  4.25928310e-02]
   [-3.16327177e-02 -2.28623394e-02 -2.62581445e-02]]]


 [[[-3.98297496e-02 -4.73924214e-03 -4.26024577e-04]
   [-1.33230751e-02  8.73532984e-03  5.00806654e-03]
   [-2.29490772e-02 -1.02715138e-02 -5.16170658e-05]]

  [[ 6.61873957e-03  7.20396219e-03 -2.05245824e-03]
   [ 1.78333130e-02  2.51948107e-02 -1.42206671e-02]
   [ 2.18855590e-02  1.36530623e-02  8.22115503e-03]]

  [[-1.93344764e-02 -3.32217664e-02  4.16940590e-03]
   [-2.46923175e-02 -4.55613136e-02  9.22026299e-03]
   [-3.80079425e-03 -4.61252555e-02  8.88918992e-03]]

  ...

  [[ 5.24063653e-04 -8.23795889e-03  1.13931596e-02]
   [-5.44151640e-04 -5.53372502e-03  1.85894240e-02]
   [ 2.04263907e-03 -3.60579393e-03  1.02188000e-02]]

  [[ 9.32375807e-03  2.33887099e-02  6.54076459e-03]
   [-3.34365517e-02  2.74669938e-02  3.10645439e-03]
   [-5.10029197e-02 -1.51860630e-02  2.15647016e-02]]

  [[-6.85422346e-02  5.46978563e-02  1.67627782e-02]
   [ 3.30302380e-02 -5.82877658e-02  4.06369567e-02]
   [ 1.05757006e-01 -4.73982915e-02  4.70779575e-02]]]]

features.5.0.bn1.weight: torch.Size([128])
[0.33038446 0.35915133 0.2996822  0.29039645 0.35131517 0.3431513
 0.30249116 0.33462557 0.34469688 0.39157006 0.31443435 0.25534657
 0.28616923 0.220501   0.2349324  0.3686305  0.36260507 0.196949
 0.337134   0.20535873 0.3418038  0.34696218 0.30487806 0.37337857
 0.35531002 0.33984765 0.3246735  0.3257039  0.38395396 0.2579538
 0.28744882 0.3588632  0.27983198 0.29280543 0.33998027 0.33872
 0.35550547 0.33030176 0.3253001  0.3364726  0.28736976 0.32911807
 0.31712818 0.37476364 0.32764554 0.2975916  0.17552985 0.3249409
 0.32630634 0.34164983 0.36797744 0.32047027 0.3371275  0.2995391
 0.3169209  0.33170483 0.3225809  0.26512238 0.31009442 0.365037
 0.27470148 0.3426175  0.333598   0.32279864 0.2716117  0.29202455
 0.3317206  0.3289572  0.31794223 0.29232162 0.32852453 0.3125536
 0.30341926 0.3182645  0.33489782 0.30957285 0.2801485  0.27776027
 0.33563602 0.37013534 0.3190362  0.35565707 0.3425992  0.3002927
 0.31836882 0.33065826 0.32847536 0.3357734  0.17262395 0.39650407
 0.32197538 0.240079   0.32190496 0.33385348 0.2926118  0.3136593
 0.33514106 0.22462866 0.31650728 0.29526344 0.3381426  0.32315263
 0.31909174 0.2902948  0.28517506 0.3211046  0.31323355 0.25411338
 0.35118073 0.33222035 0.34184477 0.30338338 0.4001927  0.21685489
 0.30773416 0.40315884 0.29098463 0.3281299  0.28477246 0.29041594
 0.3145504  0.35578853 0.32028627 0.33749428 0.3424126  0.29280016
 0.33930448 0.32751164]

features.5.0.bn1.bias: torch.Size([128])
[-0.05141443 -0.16988637 -0.01915869  0.00154211 -0.09028539 -0.10278777
  0.03010123 -0.08627703 -0.2037746  -0.17137884 -0.12989119 -0.04796166
 -0.08086501  0.20958607 -0.04803729 -0.18626513 -0.10955527  0.28683627
 -0.0528335   0.21786238 -0.09284374 -0.14100832 -0.13731785 -0.12681963
 -0.09764114 -0.0413378  -0.117934   -0.04997451 -0.11053379  0.1526624
 -0.12589817 -0.15304708  0.08927874 -0.04320399 -0.13654117 -0.12500645
 -0.08741143 -0.04915278 -0.08225697 -0.06287926 -0.08892822 -0.24554946
 -0.34499732 -0.21220586 -0.07017399 -0.06948701  0.5024464  -0.08097637
 -0.10077842 -0.07567582 -0.18374026 -0.11179777 -0.10380312 -0.0537995
 -0.07863364 -0.04998599 -0.03490995  0.00846913 -0.0513258  -0.2404901
  0.00670544 -0.15013976 -0.09221615 -0.05110544 -0.04634051  0.09762327
 -0.09950832 -0.09110762 -0.11069266 -0.0362548  -0.09772054 -0.16957322
 -0.10438911 -0.09348899 -0.13599725 -0.09372228 -0.02052226 -0.0308234
  0.00641188 -0.20441028 -0.15292378 -0.13954687 -0.1284152  -0.04926923
 -0.1916411  -0.1193432  -0.03778654 -0.1301172   0.2279834  -0.21366827
 -0.13995016  0.14667015 -0.08785202 -0.13286448  0.02201794 -0.11558264
 -0.09373208  0.15174589 -0.09964837 -0.0726565  -0.12941091 -0.03790605
 -0.06661491 -0.04332196  0.07804436 -0.04359464 -0.02858179 -0.05128936
 -0.08198903 -0.14966917 -0.11102977 -0.02202428 -0.19620582  0.23704277
  0.03426073 -0.13016199 -0.06159502 -0.08595167 -0.05529871 -0.03087941
 -0.03341854 -0.14751656 -0.10733595 -0.1113953  -0.13285446 -0.13813357
 -0.09429156 -0.10791115]

features.5.0.bn1.running_mean: torch.Size([128])
[ 0.14028019  0.44295543 -0.55099475  0.14386131 -0.73385656 -0.7875673
  0.10700352 -0.27934456 -0.5786168   0.29381093  0.11579835 -1.446796
  0.01624683  0.21798031 -0.4832003  -0.43694985  0.25196818 -1.5747734
  0.01381624 -0.05695996 -0.5598633  -0.48821294  0.3165259  -0.25770107
  0.13808854 -0.4977278  -0.23000625 -0.56789315 -0.18459989  0.9781163
  0.15371045 -0.09149076 -1.2975376  -0.27600098  0.02871003 -0.61432505
  0.45997     0.23452877 -0.38321233 -0.3064051  -0.49871168 -0.02395026
 -1.1207541  -0.4319128  -1.1795288  -0.9449484  -0.9980374  -0.91046804
 -0.47095922 -0.79322374 -0.47971022 -0.35430732 -0.21002488 -0.5472146
 -1.0521649  -0.07195386 -0.54774636 -0.47168896 -0.311705   -1.3572274
 -0.13060781 -0.1278351  -0.23437452 -0.66195196 -1.246366    0.02820419
  0.5237778   0.24641472 -0.24782471 -0.75626636 -0.812719    1.0444351
 -0.4054962  -0.23268318 -0.7268971  -0.38324845 -0.97162366 -1.4883009
  0.3324392  -0.2158019  -1.2870662   0.20027818  0.23344763 -0.10555788
 -1.5541648   0.7667269  -0.7823286  -0.61771685  0.68706805 -0.4112343
 -0.9280121   0.09377752 -0.8443729  -0.5738941   0.22158478 -0.06674471
  0.1006047  -1.0141732   0.5920584  -0.1920027   0.4269476  -0.38816753
 -0.44861105 -0.74410987 -0.2731854  -0.38266096 -0.21217121  0.0919442
 -0.24043977 -0.42708743  0.02475693 -0.1079625  -0.3405339  -0.81009877
 -0.81698066  0.01284528 -0.13891377 -0.10913344 -0.815436   -0.5909605
  0.49246913 -0.34792486  0.25751066 -0.01041185 -0.16602032 -1.1660875
 -0.1863086   0.01885408]

features.5.0.bn1.running_var: torch.Size([128])
[0.7501633  1.1847662  1.1438441  1.7999139  0.8988269  0.41867805
 0.5861064  0.911589   1.0779884  0.5893558  0.35105476 0.8524513
 0.63614    0.66714704 0.5502731  0.8394678  0.56743956 0.31574246
 0.6357533  0.5741219  0.5154021  0.5221213  0.32496408 0.52400935
 1.0010035  0.95765644 0.7821852  0.9150821  0.84572303 0.7144762
 0.5897639  0.42578322 0.87674886 0.48765942 0.7806607  0.5485754
 0.54744244 0.5860421  0.8694685  0.66913605 1.3049967  0.32190073
 0.35775533 0.4759877  1.1216528  0.78982186 0.75913066 0.61038315
 0.68492985 0.6698671  0.7973972  0.5374504  0.5309581  1.3280488
 0.6745909  0.5205576  1.4748583  0.70906246 0.9789893  0.28943378
 0.90232676 0.59121346 0.79584837 3.621155   0.9260736  1.1514549
 0.61367524 0.7123668  0.4080409  0.70050174 0.8916666  0.31003115
 0.5078604  0.6936646  0.77187085 0.5086485  0.53060436 0.86594975
 0.89737123 0.53283584 1.0942396  0.54348695 0.5363323  0.49849057
 0.87947917 0.34156135 0.7282552  0.6422952  0.6119174  0.529585
 0.43752408 0.9542834  0.5405947  0.47235557 2.6794097  0.47924864
 0.675041   0.5313237  0.51890707 0.7174494  0.6212843  0.59229654
 0.5289837  1.9931334  1.6505268  0.79982543 0.6436531  0.67752534
 0.75009745 0.58532965 0.4270898  0.71064377 0.5900702  0.8183544
 1.0640444  0.90096676 0.6926618  0.7565713  0.8296778  0.81797236
 0.8933769  0.587836   0.6308081  0.53805816 0.5646111  0.52679354
 0.9088949  0.6356934 ]

features.5.0.bn1.num_batches_tracked: torch.Size([])
160

features.5.0.conv2.weight: torch.Size([128, 128, 3, 3])
[[[[-1.30568175e-02 -1.89631321e-02  6.29900256e-03]
   [-2.21322160e-02  1.87818240e-02  4.37737927e-02]
   [-4.01815549e-02 -2.02934933e-03  1.10521736e-02]]

  [[ 2.74806246e-02  1.69611629e-02  1.75632024e-03]
   [-4.52660350e-03  1.57071147e-02  2.71610655e-02]
   [ 3.58339436e-02  3.11089084e-02  1.32656721e-02]]

  [[ 1.08230198e-02 -2.99534705e-02 -3.44916657e-02]
   [-2.70496365e-02 -2.79193483e-02 -6.42111823e-02]
   [-3.29814702e-02 -2.36347374e-02 -9.11177043e-03]]

  ...

  [[-1.07916761e-02  1.37623688e-02 -1.01398258e-03]
   [ 9.85477399e-03  1.66646522e-02  8.96103028e-03]
   [ 5.04455389e-03  6.55999454e-03  3.62066296e-03]]

  [[ 1.36941960e-02  9.10659786e-03 -6.62690552e-04]
   [-2.17838902e-02 -1.52265280e-02 -1.24950465e-02]
   [-1.55684324e-02  4.41099890e-03  6.79372693e-04]]

  [[ 1.01951174e-02 -3.12469639e-02 -1.24700209e-02]
   [ 1.37374196e-02  2.31713317e-02 -2.34617367e-02]
   [ 1.38304131e-02  6.52677903e-04 -7.61581166e-03]]]


 [[[ 8.79267883e-03  1.98885128e-02 -1.40696205e-03]
   [-1.19466940e-02 -5.88268694e-03  4.10016328e-02]
   [ 6.87531196e-03  3.27100530e-02  2.15457100e-02]]

  [[-6.03904109e-03 -1.76737364e-02 -1.08189816e-02]
   [-1.06923562e-02  3.86599116e-02  5.10002580e-03]
   [ 2.18856800e-02  1.32113835e-02  1.62306819e-02]]

  [[-2.41648685e-02 -2.44733430e-02  2.25991178e-02]
   [-3.02117411e-02 -6.76776022e-02 -7.42466673e-02]
   [ 1.75885540e-02  3.94151956e-02  1.19995046e-02]]

  ...

  [[-2.24967971e-02 -3.02598383e-02 -2.85293870e-02]
   [-5.96916378e-02 -6.07530586e-02 -8.04386511e-02]
   [-5.73933125e-02 -6.59409761e-02 -6.76441863e-02]]

  [[ 2.98768375e-02  2.35186219e-02  2.38145310e-02]
   [ 1.29574761e-02  5.27839065e-02  2.45598406e-02]
   [ 9.39397048e-03  3.03480309e-02  1.62851512e-02]]

  [[-1.91817289e-05 -2.37878766e-02  2.24505458e-03]
   [-8.87673628e-03 -2.65999939e-02 -4.56877761e-02]
   [-5.23963524e-03 -4.87235934e-03 -3.30942124e-02]]]


 [[[ 1.04993964e-02 -6.41361251e-03 -7.38534797e-03]
   [ 3.01996507e-02 -1.02916054e-01 -8.25533643e-02]
   [-7.46903056e-03 -4.25452441e-02 -2.41358695e-03]]

  [[ 2.10854728e-02  2.03364156e-02 -4.28217053e-02]
   [ 9.13981907e-03  1.17642591e-02 -3.90886739e-02]
   [ 9.55187008e-02  6.82502389e-02  4.28727753e-02]]

  [[-6.71120454e-03  1.08504249e-03  8.82164761e-03]
   [ 1.25012891e-02 -1.14142485e-02  7.33280787e-03]
   [ 2.41227355e-02  6.23781933e-04  1.78564228e-02]]

  ...

  [[-5.80529391e-04  1.95539296e-02 -2.27071438e-02]
   [-2.35289000e-02  2.41999049e-03 -3.84762809e-02]
   [-2.80231796e-02 -3.46073397e-02 -4.69234511e-02]]

  [[-6.86590938e-05  8.85916408e-03 -8.36868118e-03]
   [-1.24328751e-02 -5.78008555e-02  4.05381508e-02]
   [-8.51821080e-02 -3.69316270e-03  4.94659413e-04]]

  [[ 2.73412210e-03 -2.48254389e-02  4.51598205e-02]
   [ 9.54858214e-03  4.21041064e-02  2.24093962e-02]
   [ 1.45127662e-02 -2.02299319e-02  2.76169721e-02]]]


 ...


 [[[ 3.37261632e-02  1.33816674e-02  1.19134272e-02]
   [ 6.37898296e-02 -2.72349548e-02  1.50601810e-03]
   [ 3.17747593e-02  1.28493039e-02  5.24863973e-02]]

  [[-2.77395081e-02 -2.52117980e-02 -5.84392063e-02]
   [-2.86073964e-02 -4.58267070e-02 -2.27042288e-02]
   [-1.72557905e-02 -4.50350493e-02 -1.21026440e-02]]

  [[-4.08877321e-02  3.58406231e-02  3.22333127e-02]
   [ 8.22002441e-03  3.62388641e-02 -2.74157282e-02]
   [ 2.32216120e-02  3.11858431e-02  8.18192773e-03]]

  ...

  [[ 1.25169782e-02 -1.90981422e-02 -1.73720671e-03]
   [-2.83615235e-02  7.54103884e-02  1.35124456e-02]
   [-3.28267626e-02 -1.24213723e-02  4.68653813e-02]]

  [[-4.02112715e-02 -3.64949182e-02 -4.58138324e-02]
   [-3.85057852e-02 -1.02187857e-01 -4.97189909e-02]
   [-2.59937681e-02 -8.19915347e-03 -3.62400226e-02]]

  [[ 1.46031203e-02 -2.52722800e-02 -2.65948214e-02]
   [ 8.22711212e-04 -2.05300748e-02 -1.06871920e-02]
   [ 1.91349704e-02  1.86671093e-02 -2.53338814e-02]]]


 [[[ 2.75309104e-02  2.42070053e-02  2.31001782e-03]
   [ 3.90703157e-02 -1.54913394e-02  8.17216560e-03]
   [ 7.22139515e-03 -2.93509513e-02 -3.29882242e-02]]

  [[ 1.07348347e-02  1.95564181e-02 -2.43878495e-02]
   [ 3.95223172e-03  1.29660256e-02  4.48145904e-03]
   [ 1.92774311e-02  3.70119400e-02  7.90502038e-03]]

  [[-2.77810954e-02  2.21372042e-02  2.70802295e-03]
   [-2.76430380e-02  6.42723069e-02  2.48522498e-02]
   [-9.00237635e-02 -8.43817368e-02 -3.19517739e-02]]

  ...

  [[-1.29063567e-02 -2.06474867e-02 -2.27116630e-03]
   [-2.19974108e-03 -3.97227481e-02 -2.66490635e-02]
   [-1.61649790e-02 -6.30372390e-02 -4.69417758e-02]]

  [[ 2.05682777e-03  1.29752292e-03  1.65098589e-02]
   [-1.72280129e-02 -1.75515935e-02  2.48042354e-03]
   [ 2.41466276e-02  1.82941910e-02  5.39648766e-03]]

  [[-1.84217503e-03  4.12021019e-03  8.11656006e-03]
   [ 3.73537117e-03 -1.32787693e-02  6.40408695e-03]
   [-1.09537281e-02 -1.44696552e-02 -2.22730357e-02]]]


 [[[-1.70225948e-02  1.08300941e-02 -4.37029526e-02]
   [-1.86524075e-03 -5.23963571e-02 -1.44739494e-01]
   [-1.42404521e-02 -8.62714555e-03 -5.98361045e-02]]

  [[ 1.36070903e-02  6.31749183e-02  4.97235171e-02]
   [-6.68424694e-03  9.51510295e-02  1.33286351e-02]
   [ 1.60037226e-03 -7.27557298e-03 -7.10352808e-02]]

  [[-2.60486379e-02  1.79836657e-02  1.04378872e-02]
   [-9.20966733e-04  1.48140043e-02  4.47699893e-03]
   [-4.96929837e-03  2.63109878e-02  5.72704431e-03]]

  ...

  [[-6.61678566e-03  2.77580656e-02 -1.59403216e-02]
   [-7.31440680e-03 -2.31320206e-02 -3.89714143e-03]
   [ 9.01506748e-03 -2.42234133e-02 -5.32357302e-03]]

  [[ 2.75247917e-02 -1.42404214e-02 -7.39892125e-02]
   [-1.48434555e-02 -9.90932956e-02 -5.11948466e-02]
   [-2.82422546e-02 -1.88032947e-02 -4.08755802e-03]]

  [[-2.08065342e-02 -8.49781632e-02  3.34655605e-02]
   [ 7.58305378e-03  3.52569073e-02  1.40245989e-01]
   [ 1.53796189e-02 -9.22932476e-03 -1.97586627e-03]]]]

features.5.0.bn2.weight: torch.Size([128])
[0.14711441 0.33070335 0.31692633 0.2503917  0.41288245 0.3915659
 0.44813535 0.30406013 0.33898798 0.21478476 0.21803498 0.3775754
 0.19893914 0.25751245 0.15987581 0.2384103  0.31142455 0.36483675
 0.3837624  0.32779613 0.37028104 0.46703464 0.19706228 0.46903378
 0.16756742 0.38481474 0.29129717 0.19345653 0.20409337 0.21617639
 0.42915085 0.3655739  0.2468384  0.23102225 0.331213   0.30458412
 0.26087776 0.3578418  0.2516201  0.39971307 0.44957623 0.34296483
 0.26927236 0.18588069 0.12172885 0.29829723 0.1986204  0.29960787
 0.39821616 0.41524237 0.18275464 0.44633693 0.33524975 0.16411586
 0.3442115  0.16865245 0.28054446 0.1368489  0.44733614 0.2613707
 0.4803553  0.3237993  0.47475323 0.3027003  0.5992641  0.457292
 0.52457714 0.30281228 0.30014053 0.46968138 0.2523782  0.4257832
 0.47170737 0.42954162 0.33405605 0.2593047  0.39844137 0.35775042
 0.18554911 0.37862793 0.28970224 0.39468908 0.33369312 0.20948718
 0.33246773 0.14725168 0.2748358  0.49588776 0.31421798 0.4162657
 0.14937337 0.48652625 0.3263262  0.34908798 0.16740525 0.4777509
 0.2756875  0.16934998 0.3249831  0.41782126 0.36496124 0.18004292
 0.34270188 0.37020198 0.16981386 0.35480013 0.2932166  0.24672915
 0.4565493  0.315255   0.39792448 0.6163759  0.28352687 0.4816982
 0.1564879  0.60734254 0.3660066  0.46627507 0.3746101  0.23836616
 0.53815234 0.16111282 0.3183571  0.4387801  0.32623136 0.43384427
 0.14509386 0.36588648]

features.5.0.bn2.bias: torch.Size([128])
[ 0.02211642  0.06459998  0.14002004 -0.10893612 -0.05065103 -0.14618328
 -0.04360656  0.04716463 -0.06914406  0.09286723  0.00162438 -0.0320019
 -0.04269642  0.01578793  0.05381791 -0.00436362  0.0412127  -0.03823885
 -0.02707628  0.02021312 -0.22529243 -0.11730236  0.05026557 -0.11554688
  0.11131134  0.02849658  0.00352439  0.01573465  0.07995427  0.13274887
  0.02273888  0.04955796  0.10565469  0.05303647 -0.05205817 -0.13444053
  0.09684168 -0.15478519  0.00868656  0.1213338   0.02833305  0.07982513
 -0.06463315  0.09755644  0.09425191  0.03998288  0.04341467  0.02040581
 -0.00971769 -0.06143134 -0.02130064 -0.1758335   0.13319132  0.08496682
  0.04726034  0.08407955  0.01444662  0.04207434 -0.1123153   0.00860067
 -0.22006164  0.00050268 -0.192536    0.04002455 -0.07830684  0.05381871
 -0.03203366  0.04922805  0.06027049 -0.16183262  0.01263904 -0.02576107
 -0.13166504  0.00405136  0.04459099  0.12268826 -0.13566779  0.05231797
  0.0501606  -0.07448573  0.01020102 -0.00241704  0.09746432  0.13483988
 -0.01925086  0.05624915  0.09377669 -0.03858814  0.03179766 -0.01088677
  0.13657007 -0.26091978  0.00542916 -0.0594509   0.04896095 -0.08028392
  0.09006263  0.15955447 -0.10481615  0.08773713 -0.05866303  0.0769937
 -0.06658162 -0.07689671 -0.02475273  0.05500114  0.14465787  0.13210303
 -0.04986322 -0.0473733  -0.08368297 -0.11308301  0.07247686 -0.1708026
  0.03443686 -0.2734352  -0.09089439 -0.07140965 -0.07502411  0.04782163
 -0.02222965  0.09819585 -0.0124117  -0.01583052  0.02627249 -0.02979782
  0.05182767 -0.13850433]

features.5.0.bn2.running_mean: torch.Size([128])
[-0.5088128  -0.11343148 -0.46536875  0.00770181 -0.12408614 -0.07829008
 -0.4525309  -0.06412904 -0.39760688 -0.06514557  0.02890122 -0.09623116
 -0.07861593 -0.2359039  -0.26552582 -0.37440562 -0.24677652 -0.02467983
  0.56298     0.04085142 -0.5669269  -0.10194675 -0.38117647 -0.02659752
  0.01434557 -0.17576656 -0.16817936 -0.07142451 -0.06284288 -0.603634
 -0.46495515 -0.10558777 -0.19439591 -0.10302743 -0.7216465  -0.2567715
 -0.00450665 -0.27034625 -0.1411354  -0.06262689 -0.9176613  -1.1802756
  0.1112984  -0.06443156  0.1135895  -0.42135212  0.2126263  -0.2729278
 -0.26383093  0.1248575  -0.39548388  0.06613563  0.10233799 -0.4232815
 -0.58939475 -0.2052437   0.10930277 -0.3461576  -0.32993683  0.20845468
 -0.57257247 -0.30138227 -0.01306602 -0.11730611 -0.5018558  -0.28355262
 -0.49223748  0.07812136 -0.45758998 -0.16309093  0.05528147 -0.2547548
 -0.25698763 -0.08268789 -0.6266329   0.02902005 -0.11606186 -0.2941411
 -0.09545346 -0.1063835  -0.6759834  -0.34473595  0.28143665 -0.7200498
 -0.30498588 -0.02962355  0.09008754 -0.45193046 -0.46513397 -0.5699506
 -0.46645328  0.32920754 -0.36310774 -0.0876578  -0.23691757 -0.42281285
 -0.07991832 -0.11873308 -0.05479279 -0.5584091  -0.08553108 -0.3534822
 -0.33911997 -0.12119719  0.05638292 -0.16940856  0.15625167 -0.12302737
 -0.11502624 -0.0488646   0.05187217 -1.1054372   0.03694193 -0.1740593
 -0.40732947 -1.0186967  -0.32949397 -0.05161813 -0.19001137 -0.57347405
 -0.66624326  0.11237543 -0.30046174 -0.5444241   0.10531542 -0.43237212
 -0.17903714 -0.02322264]

features.5.0.bn2.running_var: torch.Size([128])
[0.05150904 0.15982431 0.06530476 0.04686346 0.08849668 0.05848313
 0.12252065 0.19739091 0.0635142  0.19426996 0.07115151 0.14533336
 0.09884086 0.07827649 0.05993075 0.08571708 0.12949163 0.12001942
 0.11501715 0.09145802 0.12658001 0.1057184  0.14085855 0.11449495
 0.09317322 0.12737037 0.09068002 0.05044448 0.07009897 0.08795612
 0.1705388  0.10987656 0.0729591  0.10013333 0.0933163  0.04215363
 0.11172701 0.07318695 0.07527918 0.3440141  0.47863337 0.2560983
 0.04001947 0.07415235 0.09039396 0.13858928 0.09658289 0.15132059
 0.14852445 0.07217409 0.04566842 0.08232162 0.08779038 0.06076374
 0.2954315  0.10156284 0.07303148 0.1072625  0.19528866 0.06527421
 0.07439832 0.17126375 0.07722471 0.10249721 0.29551452 0.15300646
 0.26372287 0.09269612 0.08625896 0.06783672 0.22915198 0.13221562
 0.10053701 0.11546215 0.18742675 0.11853462 0.07500508 0.34068635
 0.0457334  0.08343838 0.06458978 0.08443646 0.23484884 0.21285594
 0.13612019 0.08122607 0.09428801 0.24145761 0.14118779 0.35891405
 0.05525902 0.08013819 0.15016109 0.10788693 0.04691123 0.1582511
 0.10061759 0.07548885 0.04485374 0.2168863  0.11886994 0.29614174
 0.09385873 0.085823   0.03154002 0.14044343 0.18326724 0.07247728
 0.13066103 0.08242035 0.05709011 0.24096407 0.09126595 0.06481148
 0.05602947 0.12356447 0.10432252 0.1362438  0.08360522 0.07759715
 0.21016248 0.17501402 0.05647161 0.21436092 0.0598323  0.16039509
 0.08324228 0.05265421]

features.5.0.bn2.num_batches_tracked: torch.Size([])
160

features.5.0.downsample.0.weight: torch.Size([128, 64, 1, 1])
[[[[ 0.01196875]]

  [[-0.3165495 ]]

  [[ 0.00728836]]

  ...

  [[-0.1715664 ]]

  [[ 0.02542205]]

  [[ 0.00909636]]]


 [[[ 0.01223383]]

  [[ 0.00242103]]

  [[-0.01321689]]

  ...

  [[-0.01730013]]

  [[-0.08697987]]

  [[-0.00310801]]]


 [[[-0.04245904]]

  [[ 0.00646973]]

  [[-0.17106986]]

  ...

  [[ 0.03137445]]

  [[-0.02214313]]

  [[ 0.06249934]]]


 ...


 [[[-0.03166478]]

  [[ 0.0482996 ]]

  [[-0.05406507]]

  ...

  [[-0.05673217]]

  [[ 0.05335713]]

  [[ 0.06197204]]]


 [[[-0.00456273]]

  [[-0.03309415]]

  [[ 0.05539788]]

  ...

  [[ 0.78572994]]

  [[-0.00485583]]

  [[-0.02183958]]]


 [[[-0.02908972]]

  [[-0.01358499]]

  [[-0.06187541]]

  ...

  [[ 0.01795415]]

  [[-0.07458902]]

  [[ 0.02281785]]]]

features.5.0.downsample.1.weight: torch.Size([128])
[0.3361769  0.05467406 0.0743164  0.3505328  0.16989288 0.14071421
 0.1571161  0.31521487 0.19096226 0.15162213 0.30227903 0.22917683
 0.38523376 0.17869507 0.31697765 0.2608265  0.15045449 0.19534402
 0.29743543 0.11220865 0.5876392  0.06193035 0.25376588 0.09121031
 0.25543573 0.03839973 0.23436028 0.27446175 0.3099293  0.30541182
 0.18397254 0.06266289 0.21981221 0.37915757 0.46968284 0.32121074
 0.10480553 0.34548876 0.2401584  0.15825488 0.17383994 0.23547004
 0.26410487 0.17296773 0.285725   0.26373112 0.23438598 0.14084786
 0.0563653  0.27825877 0.3363151  0.19193745 0.07374438 0.27049705
 0.11948209 0.28718337 0.2414407  0.26890466 0.08623873 0.25124237
 0.13099135 0.22095442 0.20006038 0.05121465 0.06852035 0.04181967
 0.10105821 0.08126798 0.13256483 0.08893992 0.1880587  0.16098975
 0.12974451 0.10799204 0.12992363 0.08824562 0.07555108 0.04815241
 0.30632842 0.22215934 0.29893965 0.13152023 0.07610419 0.22763029
 0.25057495 0.33337972 0.10157347 0.19119689 0.12985529 0.1351655
 0.29873013 0.23486108 0.16928643 0.13046457 0.27321565 0.14595611
 0.07554632 0.16892819 0.19060427 0.15748253 0.22617665 0.37359586
 0.21465182 0.18760829 0.39459014 0.16423088 0.06746165 0.0621553
 0.07460289 0.20723341 0.13038884 0.11280327 0.30805916 0.10787173
 0.33578664 0.16642897 0.3783356  0.14849994 0.0791712  0.21943001
 0.04767265 0.27491593 0.14618437 0.00218262 0.17998262 0.13181773
 0.31658974 0.16714656]

features.5.0.downsample.1.bias: torch.Size([128])
[ 0.02211642  0.06459998  0.14002004 -0.10893612 -0.05065103 -0.14618328
 -0.04360656  0.04716463 -0.06914406  0.09286723  0.00162438 -0.0320019
 -0.04269642  0.01578793  0.05381791 -0.00436362  0.0412127  -0.03823885
 -0.02707628  0.02021312 -0.22529243 -0.11730236  0.05026557 -0.11554688
  0.11131134  0.02849658  0.00352439  0.01573465  0.07995427  0.13274887
  0.02273888  0.04955796  0.10565469  0.05303647 -0.05205817 -0.13444053
  0.09684168 -0.15478519  0.00868656  0.1213338   0.02833305  0.07982513
 -0.06463315  0.09755644  0.09425191  0.03998288  0.04341467  0.02040581
 -0.00971769 -0.06143134 -0.02130064 -0.1758335   0.13319132  0.08496682
  0.04726034  0.08407955  0.01444662  0.04207434 -0.1123153   0.00860067
 -0.22006164  0.00050268 -0.192536    0.04002455 -0.07830684  0.05381871
 -0.03203366  0.04922805  0.06027049 -0.16183262  0.01263904 -0.02576107
 -0.13166504  0.00405136  0.04459099  0.12268826 -0.13566779  0.05231797
  0.0501606  -0.07448573  0.01020102 -0.00241704  0.09746432  0.13483988
 -0.01925086  0.05624915  0.09377669 -0.03858814  0.03179766 -0.01088677
  0.13657007 -0.26091978  0.00542916 -0.0594509   0.04896095 -0.08028392
  0.09006263  0.15955447 -0.10481615  0.08773713 -0.05866303  0.0769937
 -0.06658162 -0.07689671 -0.02475273  0.05500114  0.14465787  0.13210303
 -0.04986322 -0.0473733  -0.08368297 -0.11308301  0.07247686 -0.1708026
  0.03443686 -0.2734352  -0.09089439 -0.07140965 -0.07502411  0.04782163
 -0.02222965  0.09819585 -0.0124117  -0.01583052  0.02627249 -0.02979782
  0.05182767 -0.13850433]

features.5.0.downsample.1.running_mean: torch.Size([128])
[-0.2339194   0.14367081  0.00582644  0.17791736 -0.07631226 -0.26255527
  0.22246172 -0.18022606  0.01269562 -0.16600326 -0.27278417 -0.41442785
 -0.45101267 -0.19117802  0.02027278 -0.1481822  -0.08046146  0.1435595
  0.08274829  0.06148819 -0.11561371 -0.1696189  -0.71224886 -0.19311653
  0.11240651  0.1082859  -0.31201148 -0.21954283  0.22303243 -0.8916259
 -0.08754922 -0.10615539 -0.9692287  -0.18226482 -0.06970852 -0.50387156
  0.2121623   0.16708569 -0.02234658  0.3396168  -0.50721717  0.19302008
 -0.17858997 -0.2585735  -0.26884797 -0.03726045 -0.19433157 -0.24833328
  0.06122574 -0.29988116  0.17769076 -0.5426145   0.00899325  0.20445977
 -0.00851898 -0.32068092  0.1137975   0.51055527  0.0945368   0.06240433
  0.05046401 -0.41646683 -0.13400872  0.05464748 -0.05668253  0.16269878
 -0.30784333 -0.12261864 -0.13814193  0.25458246 -0.27937657  0.34684762
  0.16017333 -0.06806559 -0.5883516  -0.11212049 -0.28860444  0.27299792
  0.3895318  -0.11772244  0.39471632 -0.22638574 -0.21525012 -0.13028786
 -0.22145678 -0.07185963  0.04410809  0.01493558  0.38820174  0.05149461
 -0.38439107  0.15359335  0.13199861  0.02740111 -0.23301458 -0.1844663
 -0.24505039 -0.43306145 -0.13767613  0.24508235 -0.0950537  -0.22796974
  0.28644466 -0.25632268 -0.25955197 -0.54531366  0.2135889   0.09637711
 -0.26717553 -0.20554347 -0.07654331 -0.34965476 -0.41057816 -0.0950977
 -0.18652585  0.6971022  -0.29874074 -0.02214931  0.18782339 -0.02711106
  0.09477358  0.95123994  0.08945473  0.0985933  -0.75600404 -0.17339957
  1.2591634  -0.30352584]

features.5.0.downsample.1.running_var: torch.Size([128])
[0.13294803 0.02007705 0.02057508 0.10950037 0.10240995 0.02662598
 0.01998074 0.18783575 0.05506815 0.05169229 0.16054294 0.10422561
 0.1269824  0.05949234 0.20655614 0.05263676 0.05828054 0.08622198
 0.14190356 0.02653076 0.15172112 0.02308192 0.18213327 0.02161976
 0.0770461  0.01768609 0.12302801 0.15966688 0.1758746  0.14185874
 0.0853044  0.02760846 0.1153473  0.23846795 0.20853432 0.03264535
 0.04315165 0.04568416 0.11040804 0.18213265 0.1214618  0.11966086
 0.0778775  0.05329527 0.12832245 0.14093202 0.1058961  0.07179826
 0.01064118 0.07994124 0.11839025 0.05899288 0.03319236 0.05879417
 0.07385463 0.14996624 0.06854442 0.1014251  0.02408845 0.13359448
 0.00929393 0.12015531 0.09709343 0.02304522 0.01406857 0.01167588
 0.04302214 0.01703445 0.06065919 0.02318383 0.06953337 0.03821994
 0.03844937 0.02258045 0.07415635 0.04623085 0.02617935 0.01394908
 0.11533114 0.15683258 0.11073826 0.06005834 0.02549038 0.15222186
 0.05560304 0.22733043 0.03603742 0.08890905 0.03341275 0.02637443
 0.21586904 0.052904   0.03356787 0.06601339 0.04680206 0.04644234
 0.03083742 0.06148722 0.03252283 0.07645839 0.13330472 0.30698115
 0.05629931 0.0536665  0.10045066 0.05475769 0.05904408 0.03986598
 0.01640221 0.03597204 0.04259938 0.03512866 0.27095935 0.03514636
 0.17117073 0.02622903 0.13998993 0.06546578 0.01393957 0.08260347
 0.02352997 0.30512244 0.07688484 0.00453707 0.03261613 0.02240709
 0.14155157 0.05453359]

features.5.0.downsample.1.num_batches_tracked: torch.Size([])
160

features.5.1.conv1.weight: torch.Size([128, 128, 3, 3])
[[[[-0.00274681 -0.00651222 -0.01227916]
   [ 0.02257477 -0.00060476  0.00417702]
   [ 0.00633727 -0.01951737 -0.00369061]]

  [[-0.03008397 -0.00813705 -0.01995225]
   [-0.02286852  0.00520622 -0.00035988]
   [ 0.00709008 -0.01006679 -0.01446344]]

  [[ 0.00099895  0.04284483  0.02765601]
   [-0.06040546 -0.02132655  0.00476779]
   [ 0.0390417  -0.1056888  -0.05557702]]

  ...

  [[-0.02238032  0.00823732  0.01848007]
   [-0.01750899 -0.05077     0.00367076]
   [ 0.00096454 -0.00584653  0.04073636]]

  [[-0.01817336 -0.03235005 -0.01359052]
   [ 0.03094826  0.02791307  0.00937773]
   [-0.00082553  0.00320077  0.00683333]]

  [[-0.00732056  0.00864069  0.02812154]
   [ 0.00252054  0.04924469  0.01371903]
   [-0.01758651 -0.03340805 -0.01727973]]]


 [[[ 0.09161372  0.09637687 -0.04790561]
   [ 0.0404208   0.010186   -0.10104854]
   [-0.04968511 -0.1159635  -0.12333074]]

  [[-0.00171297 -0.02065733  0.00708153]
   [-0.02883822 -0.0364409   0.01021086]
   [ 0.01320942  0.01604562  0.06199811]]

  [[ 0.02236353  0.00752457  0.01289911]
   [-0.02243757 -0.01601698  0.01850208]
   [-0.01881439 -0.02104715  0.01176968]]

  ...

  [[-0.02987479 -0.01980999  0.00031952]
   [-0.02050387  0.00628163  0.01360505]
   [ 0.00185425  0.00753585  0.00849209]]

  [[-0.05020617 -0.02373363  0.01110973]
   [-0.04328    -0.01849102  0.02966744]
   [-0.00420629 -0.00511063  0.0136302 ]]

  [[ 0.01480574  0.02576455  0.01093048]
   [ 0.03220689 -0.00074121  0.00196832]
   [-0.00588199  0.00988813  0.009085  ]]]


 [[[-0.02127844 -0.00521616  0.00486546]
   [-0.00721021  0.00330291  0.01324495]
   [-0.01697906  0.02982276  0.0099578 ]]

  [[ 0.00326345  0.00720144  0.03425209]
   [-0.00860159  0.00870375  0.00191411]
   [ 0.03424225  0.00744527 -0.00328022]]

  [[-0.04048126  0.00178356  0.14565693]
   [-0.05138591 -0.00061549  0.08774564]
   [-0.06146782  0.0073255   0.04108123]]

  ...

  [[ 0.03983482  0.00920437 -0.03322901]
   [ 0.00045796 -0.08703092 -0.00146302]
   [-0.02090168  0.0007948   0.06727255]]

  [[ 0.01517437  0.00932475 -0.00788374]
   [-0.01427004 -0.02521942 -0.02429806]
   [-0.00900856  0.00047943  0.00493357]]

  [[-0.00483261 -0.00942607 -0.01651096]
   [-0.03686987 -0.05359375 -0.03257094]
   [-0.02547096 -0.01045102 -0.00632374]]]


 ...


 [[[ 0.0279128   0.00547774  0.00074126]
   [-0.01577568 -0.02085783 -0.0039868 ]
   [-0.02168355 -0.01423275  0.0106418 ]]

  [[-0.00946348 -0.01452813 -0.0023383 ]
   [ 0.01269633  0.01872461  0.00619953]
   [-0.07429317 -0.05545351 -0.04398013]]

  [[-0.00866216 -0.00587944  0.00206895]
   [-0.01179046 -0.00877813 -0.03174048]
   [ 0.05527749  0.05344702 -0.01027144]]

  ...

  [[ 0.02208085  0.02028797  0.04089975]
   [ 0.0121155   0.00338626  0.01479179]
   [ 0.02771708  0.06775936 -0.02017598]]

  [[-0.03176772 -0.04041511 -0.02490111]
   [ 0.00496211 -0.02891404 -0.01272108]
   [ 0.00883825  0.06839121 -0.01583164]]

  [[ 0.00823111 -0.03079084 -0.00714043]
   [ 0.02399659 -0.0797769  -0.06042202]
   [ 0.04677714  0.01972985 -0.01702115]]]


 [[[-0.01694312  0.03852274  0.00983772]
   [ 0.00269909  0.04476347  0.00381958]
   [ 0.0194792   0.00858529 -0.01007474]]

  [[-0.02966374 -0.06643512 -0.05037653]
   [ 0.00193114  0.01469248 -0.03120393]
   [-0.0191873  -0.02033127 -0.01026062]]

  [[-0.07557677 -0.06223693  0.03263868]
   [ 0.04930472  0.03177967  0.05960711]
   [ 0.00990242  0.00499877 -0.01047115]]

  ...

  [[-0.04416077  0.01140351 -0.03080591]
   [-0.00775678  0.04512552  0.01093604]
   [-0.02670534 -0.01737361 -0.03116614]]

  [[-0.03188302  0.01993753 -0.03645958]
   [-0.00055165 -0.042896    0.01303289]
   [ 0.04614652  0.02888567  0.08718036]]

  [[-0.04203059  0.04875221  0.02221084]
   [-0.05457351 -0.01080617  0.01364264]
   [-0.01682575 -0.02948031 -0.02827725]]]


 [[[ 0.02818152  0.04747809  0.03578931]
   [ 0.02482262  0.01190835  0.00327457]
   [ 0.02108383  0.01026447  0.03992194]]

  [[ 0.00882206  0.02489855  0.03981821]
   [ 0.02749036  0.0460205   0.00989068]
   [ 0.01460844  0.05174052  0.00731881]]

  [[ 0.00653522  0.00834248  0.03202531]
   [-0.04979824  0.01544589 -0.01377889]
   [ 0.02983036  0.05770679 -0.00264462]]

  ...

  [[-0.01637022  0.00874221 -0.00345406]
   [ 0.00397114  0.02321557  0.0189722 ]
   [-0.01118752 -0.04053869  0.00183924]]

  [[-0.01649719 -0.01354804 -0.03081353]
   [-0.00970536  0.06434105 -0.00049717]
   [-0.01102883  0.0004075  -0.0056783 ]]

  [[ 0.00683058  0.00671871 -0.0028329 ]
   [-0.00063927  0.02846255  0.01983353]
   [ 0.025591   -0.00101844 -0.00731198]]]]

features.5.1.bn1.weight: torch.Size([128])
[0.33710116 0.300184   0.32861158 0.3377364  0.29978198 0.2939823
 0.31262338 0.36375594 0.2849628  0.36632663 0.3027378  0.34830552
 0.26600805 0.3262877  0.30824536 0.41400167 0.3404924  0.41786885
 0.31433022 0.24961908 0.34572268 0.3220829  0.32647255 0.27142113
 0.30048922 0.39723095 0.313912   0.33426863 0.35349864 0.39309627
 0.26872593 0.37133896 0.19215243 0.27747878 0.34052435 0.281781
 0.2505643  0.3721328  0.32402596 0.32762307 0.36200038 0.33623943
 0.35943648 0.32963616 0.30953118 0.32087883 0.3769322  0.2418989
 0.3461457  0.3172692  0.31869656 0.36896953 0.31266198 0.33938646
 0.3901557  0.4409525  0.4527363  0.29436895 0.31342703 0.3345429
 0.32967567 0.319033   0.2361616  0.31707457 0.28112358 0.31770328
 0.32318035 0.3335545  0.35195678 0.27264988 0.29877004 0.31943497
 0.30799764 0.39952555 0.25009164 0.3486622  0.32477334 0.3721008
 0.2566528  0.37058505 0.25259924 0.29067773 0.3534069  0.31365973
 0.2818482  0.2610044  0.27957293 0.48190323 0.33945394 0.28432634
 0.29160726 0.30857533 0.24511226 0.30149436 0.35655245 0.3238586
 0.33596155 0.28382453 0.35891062 0.27788377 0.25356877 0.30490634
 0.30390555 0.35392064 0.29729018 0.35765052 0.2898852  0.2915134
 0.33332682 0.27842152 0.32283467 0.23673272 0.29528594 0.2812786
 0.26773462 0.3122925  0.35482112 0.26647535 0.29047102 0.28312302
 0.34858975 0.4213884  0.35732126 0.3019526  0.28601554 0.4339536
 0.39593613 0.2814436 ]

features.5.1.bn1.bias: torch.Size([128])
[-0.16997258 -0.22901905 -0.3325195  -0.09414274 -0.19254404 -0.06961743
 -0.18160945 -0.28052422 -0.1658349  -0.17450641 -0.2609536  -0.19027166
 -0.11678829 -0.24493976 -0.16635816 -0.30765045 -0.27649063 -0.40665045
 -0.18760812 -0.14609362 -0.24131641 -0.12475744 -0.20925488 -0.18809344
 -0.09108568 -0.34226015 -0.23178793 -0.32141206 -0.30665073 -0.33392304
 -0.15990546 -0.18576074 -0.07801922 -0.32079676 -0.13822207 -0.1500559
 -0.09959007 -0.33744648 -0.22451644 -0.34666696 -0.23203014 -0.23165467
 -0.18424633 -0.16548839 -0.17269394 -0.15384245 -0.28936356 -0.1668403
 -0.20940116 -0.15500207 -0.22738206 -0.21609831 -0.09253787 -0.1499667
 -0.24152668 -0.4788935  -0.44357786 -0.10735933 -0.15425566 -0.21539198
 -0.22717527 -0.19614212 -0.04764217 -0.16810621 -0.11213724 -0.48089677
 -0.21204314 -0.23716423 -0.18927614 -0.16593786 -0.20381536 -0.20568018
 -0.20327775 -0.26231152 -0.04748454 -0.21486704 -0.27683637 -0.2613831
 -0.10363117 -0.29799604 -0.14482942 -0.15111184 -0.17872505 -0.12685403
 -0.17661712 -0.11349624 -0.1349182  -0.41175437 -0.23332368 -0.1266561
 -0.11728664 -0.21824211 -0.0973805  -0.18008767 -0.37960577 -0.24872723
 -0.15608382 -0.19123118 -0.23850356 -0.18068695 -0.1118073  -0.1473542
 -0.12098664 -0.2325453  -0.20642011 -0.38548025 -0.146453   -0.10633176
 -0.11841276 -0.20536667 -0.187814   -0.22844802 -0.12717736 -0.2553021
 -0.13821238 -0.08089776 -0.21813072 -0.15125178 -0.29657194 -0.12038625
 -0.2254394  -0.49665368 -0.37161735 -0.13828503 -0.1141085  -0.37453118
 -0.68432844 -0.14086184]

features.5.1.bn1.running_mean: torch.Size([128])
[-0.35445666 -0.35495988  0.19430813 -0.5774015  -0.73923653 -0.91729814
 -0.38600856 -0.511289   -0.03881146 -0.25357595 -0.46773133 -0.40929922
 -0.1935989  -0.24593243 -0.3439807  -0.6837543  -0.62830544 -0.77290726
  0.16926599 -0.17093283 -0.32629558 -0.4268337  -0.44157055 -0.13756026
 -0.8584835  -0.37352148 -0.41330993 -0.02164619 -0.2899422  -0.522571
 -0.49301115 -0.8666921   0.6856311  -0.02721408  0.05095601 -0.3691547
 -0.5276691  -0.5422108  -0.31105196  0.54845923 -0.46397838 -0.6545629
 -0.41791216 -0.44221598 -0.23802829 -0.45661554 -0.43849617  0.02292531
 -0.4566745  -0.48316124 -0.3777416  -0.43119803  0.11098377 -0.30813244
 -0.78208345 -0.5499081  -1.5296646   0.26581997 -0.36160243 -0.5832228
 -0.6077055  -0.23790209 -0.10565964 -0.5400969  -0.08705595  0.25903404
 -0.32148498 -0.43469274 -0.34152758  0.19935554 -0.48178536 -0.12840725
 -0.7175815  -0.45518398 -0.07681127 -0.32873663  0.0514796  -0.53714883
  0.08317635 -0.53818333 -0.10577267  0.07028687  0.01522295 -0.804811
 -0.0534219  -0.37566638 -0.13110265 -0.4807944  -0.27098873  0.9191461
 -0.41017616 -0.02165801  0.0183892  -0.1770932   0.24764442 -0.3208323
 -0.34883267 -0.03981715 -0.52699333 -0.21727394 -0.15752967 -0.42444846
 -0.19479378 -0.11210582 -0.37913415 -0.4188225  -0.09290411  0.45130393
 -0.46040857 -0.0925183  -0.66116875 -0.39405808 -0.77010477  0.70188016
  0.02638526 -0.6344357  -0.4627069  -0.17786562 -0.20009378 -0.12501858
 -0.5992984  -0.76909184 -0.8187049  -0.5236142   0.1988494  -1.0711854
 -1.2325989  -0.19919333]

features.5.1.bn1.running_var: torch.Size([128])
[0.25010523 0.17161989 0.43165678 0.37176546 0.30602005 0.36599296
 0.33054778 0.13138576 0.31192696 0.53291476 0.11579851 0.35800767
 0.34563327 0.20013312 0.2853104  0.20732898 0.24176753 0.21760325
 0.28316468 0.23663564 0.2568716  0.20955816 0.3559021  0.2836408
 0.27957493 0.27893707 0.17499796 0.1385875  0.21381582 0.2764594
 0.21306586 0.19369963 0.58601624 0.32848358 0.2834561  0.2172886
 0.17724995 0.27866745 0.18113641 0.15930465 0.25400105 0.34486553
 0.39988306 0.23100226 0.27661833 0.21732645 0.15809454 0.16482224
 0.34751675 0.26712364 0.2850653  0.30542266 0.37078527 0.3588382
 0.7710262  0.30555195 0.5505842  0.40993854 0.23624624 0.15418278
 0.29251626 0.29595736 0.17693105 0.44638798 0.35864487 0.200606
 0.17538261 0.23572165 0.25939858 0.36014572 0.2030222  0.21916161
 0.37902275 0.27008578 0.40236387 0.24225463 0.35846537 0.19836932
 0.28213674 0.2458689  0.16235803 0.2120635  0.30342147 0.545913
 0.3055922  0.20056748 0.29596463 0.31936893 0.21088007 0.3565562
 0.3076678  0.18517296 0.2514495  0.2022013  0.45439398 0.16059503
 0.40162688 0.21497901 0.29978696 0.25130135 0.2747349  0.2543721
 0.31748185 0.2916547  0.26864824 0.282991   0.32863355 0.2962957
 0.27608326 0.19192067 0.24815685 0.2911015  0.26829422 0.3807926
 0.238777   0.30841795 0.26516628 0.2442727  0.19705291 0.3205943
 0.27556354 0.17764409 0.19493355 0.41358182 0.39106926 0.25302336
 0.17944486 0.6271008 ]

features.5.1.bn1.num_batches_tracked: torch.Size([])
160

features.5.1.conv2.weight: torch.Size([128, 128, 3, 3])
[[[[-1.54906241e-02  5.38980076e-03  4.98964084e-07]
   [-1.38609931e-02 -2.72249300e-02 -3.19679976e-02]
   [ 6.28636032e-03  7.03494763e-03 -1.76216997e-02]]

  [[-1.11838002e-02  5.52062271e-03  3.18392105e-02]
   [-1.24037080e-02  2.52489243e-02  7.33864978e-02]
   [ 8.60683899e-03  7.85083100e-02  1.04152650e-01]]

  [[-3.50031140e-03  5.17597934e-03  2.72142142e-02]
   [-4.43722529e-04  1.10712107e-02  1.44295311e-02]
   [ 1.63273662e-02  1.82489362e-02  1.20945526e-02]]

  ...

  [[ 1.91019606e-02  6.07514335e-03  2.37834826e-02]
   [-1.36169456e-02 -8.13307166e-02 -1.95511170e-02]
   [-1.96386445e-02 -5.24491966e-02 -2.71052262e-03]]

  [[ 2.54535377e-02  3.42245065e-02  3.01348809e-02]
   [-1.75795145e-02 -6.68469667e-02 -2.95640733e-02]
   [ 3.60243879e-02  3.81991528e-02  1.32733136e-02]]

  [[-1.86649896e-02 -1.80234443e-02 -1.28938686e-02]
   [-2.56694816e-02 -3.38222124e-02 -1.01070544e-02]
   [-4.55108518e-03 -8.59818887e-03 -2.44429111e-02]]]


 [[[ 9.28343646e-03  3.14160772e-02  3.80397364e-02]
   [ 5.20521700e-02  5.61289974e-02  3.32047627e-03]
   [ 2.79872641e-02  1.81486271e-02 -8.75812676e-03]]

  [[-1.95880532e-02 -1.48376720e-02 -2.26404592e-02]
   [-2.48947665e-02 -9.43667255e-03 -2.69349292e-02]
   [-3.63684744e-02 -1.49109149e-02 -2.50581913e-02]]

  [[ 1.06135421e-02 -1.97357424e-02 -3.26225273e-02]
   [-2.74065249e-02  5.88883297e-04  8.61484464e-03]
   [-3.55734006e-02  1.17224241e-02  2.08192989e-02]]

  ...

  [[-4.76564318e-02 -4.01062742e-02 -5.52167147e-02]
   [-2.24131867e-02 -1.89108513e-02 -3.43925543e-02]
   [-2.52283149e-04  1.62099842e-02  8.94501898e-03]]

  [[ 3.19289370e-03  8.58518388e-03  8.37390404e-03]
   [-7.58086750e-03 -5.56400837e-03 -5.81962056e-03]
   [-2.36188658e-02 -1.71302948e-02 -1.35739392e-03]]

  [[-2.13907659e-02 -1.06537007e-02 -1.04129640e-02]
   [-8.80677253e-03 -2.19595134e-02  6.16750680e-03]
   [-1.79734807e-02 -2.82808449e-02 -1.26568554e-02]]]


 [[[-5.05013615e-02 -3.23375911e-02  7.88176730e-02]
   [ 1.82739215e-03  3.55395526e-02  8.14118013e-02]
   [ 6.88482821e-02  3.52520123e-02 -5.51547892e-02]]

  [[ 1.22490181e-02  3.34862322e-02  1.43396910e-02]
   [ 2.79499702e-02  1.68948770e-02  2.26555043e-03]
   [ 3.36570255e-02  7.22689845e-04 -2.37683002e-02]]

  [[ 5.87988682e-02 -2.79692002e-02 -5.97470701e-02]
   [-2.71020625e-02 -8.93032104e-02 -2.52499431e-02]
   [ 4.92727058e-03  2.02272888e-02  1.26717966e-02]]

  ...

  [[ 7.63333775e-03 -2.64653973e-02  9.31977853e-03]
   [-4.77161631e-02 -2.77647283e-02  2.88567469e-02]
   [-4.11114506e-02 -3.28688025e-02 -1.38180051e-02]]

  [[ 3.88040580e-02  6.97674602e-02  5.05471118e-02]
   [ 3.12424637e-03  2.32679024e-02  3.01391445e-03]
   [-8.01638607e-03 -5.09493425e-02 -1.31363785e-02]]

  [[-1.08498917e-03 -1.92838050e-02 -8.35899543e-03]
   [-1.95604246e-02  2.52881058e-04 -4.57797199e-03]
   [-3.34027410e-02 -3.51597667e-02 -4.41369340e-02]]]


 ...


 [[[-8.44334625e-03 -2.13577170e-02 -1.61551300e-03]
   [-1.97822247e-02 -4.32554856e-02 -2.73358356e-02]
   [-2.06839684e-02 -2.21274272e-02 -6.01410691e-04]]

  [[ 1.88081190e-02  2.52138712e-02  3.39240804e-02]
   [ 9.97876097e-03 -2.40102666e-03  2.18564700e-02]
   [-1.63010173e-02 -1.75156426e-02  2.87165120e-02]]

  [[-1.09950406e-03  3.27146910e-02 -1.14806900e-02]
   [-1.84279718e-02  9.79650393e-03  3.67270745e-02]
   [-2.97178552e-02 -1.91362604e-04  2.30585039e-02]]

  ...

  [[-3.56069133e-02 -9.58452821e-02 -4.07562815e-02]
   [ 9.70064197e-03  4.47789393e-02 -5.89145580e-03]
   [-8.10958631e-03 -6.07512612e-03  1.96010154e-02]]

  [[-1.74067784e-02 -2.65599061e-02  1.31758640e-03]
   [ 7.55089428e-03 -2.90812328e-02 -2.25285683e-02]
   [-1.17574297e-02 -6.56569377e-02 -3.28130536e-02]]

  [[ 2.45388076e-02  1.64409652e-02  1.92097798e-02]
   [-9.92135797e-03 -1.14490394e-05  1.64704639e-02]
   [-9.41370614e-03 -2.74438178e-03  6.30523777e-03]]]


 [[[-1.45180263e-02 -3.01798172e-02 -1.01036048e-02]
   [-3.78986672e-02 -3.49330381e-02 -1.05002970e-02]
   [-2.70998683e-02 -2.92623993e-02  8.57950374e-03]]

  [[-1.72379389e-02 -1.15670497e-02 -5.21621259e-04]
   [-2.94288583e-02 -9.37582273e-03 -9.78066493e-03]
   [ 4.93538287e-03  9.57113283e-04  4.19493811e-03]]

  [[-3.00691160e-03  4.77512274e-03  3.41319330e-02]
   [ 2.45039184e-02  2.92672310e-02  3.97506095e-02]
   [ 4.03159112e-02  3.42116989e-02  4.21695597e-03]]

  ...

  [[-1.18839107e-02  5.62887639e-03  1.31943785e-02]
   [-6.77290279e-03  1.41561152e-02  3.74241248e-02]
   [-1.13842143e-02 -9.15764645e-03  1.28149847e-02]]

  [[ 1.31149609e-02 -9.12644435e-03  3.54597881e-03]
   [ 2.67190505e-02  2.42634267e-02  2.46267896e-02]
   [ 6.02471502e-03  1.28374074e-03  2.37010904e-02]]

  [[ 4.70063835e-03  9.01270751e-03 -3.27974744e-03]
   [ 6.58607483e-03 -5.08544967e-03 -1.21804606e-02]
   [ 1.96240004e-02  1.94189847e-02  4.21073660e-03]]]


